<?xml version="1.0"?>
<opencv_storage>
<cascade>
  <stageType>BOOST</stageType>
  <featureType>HAAR</featureType>
  <height>20</height>
  <width>20</width>
  <stageParams>
    <boostType>GAB</boostType>
    <minHitRate>9.9500000476837158e-01</minHitRate>
    <maxFalseAlarm>5.0000000000000000e-01</maxFalseAlarm>
    <weightTrimRate>9.4999999999999996e-01</weightTrimRate>
    <maxDepth>1</maxDepth>
    <maxWeakCount>100</maxWeakCount></stageParams>
  <featureParams>
    <maxCatCount>0</maxCatCount>
    <featSize>1</featSize>
    <mode>BASIC</mode></featureParams>
  <stageNum>6</stageNum>
  <stages>
    <!-- stage 0 -->
    <_>
      <maxWeakCount>2</maxWeakCount>
      <stageThreshold>-1.0797165334224701e-01</stageThreshold>
      <weakClassifiers>
        <_>
          <internalNodes>
            0 -1 10 2.6951387524604797e-02</internalNodes>
          <leafValues>
            -9.0152400732040405e-01 8.9811104536056519e-01</leafValues></_>
        <_>
          <internalNodes>
            0 -1 16 -2.7107298374176025e-02</internalNodes>
          <leafValues>
            7.9355239868164063e-01 -8.7226051092147827e-01</leafValues></_></weakClassifiers></_>
    <!-- stage 1 -->
    <_>
      <maxWeakCount>3</maxWeakCount>
      <stageThreshold>-8.3473062515258789e-01</stageThreshold>
      <weakClassifiers>
        <_>
          <internalNodes>
            0 -1 7 6.1251230537891388e-02</internalNodes>
          <leafValues>
            -9.6610170602798462e-01 7.3141980171203613e-01</leafValues></_>
        <_>
          <internalNodes>
            0 -1 2 -3.5849735140800476e-02</internalNodes>
          <leafValues>
            6.0093885660171509e-01 -9.1858935356140137e-01</leafValues></_>
        <_>
          <internalNodes>
            0 -1 3 9.7020994871854782e-03</internalNodes>
          <leafValues>
            -6.4756107330322266e-01 7.4104541540145874e-01</leafValues></_></weakClassifiers></_>
    <!-- stage 2 -->
    <_>
      <maxWeakCount>2</maxWeakCount>
      <stageThreshold>-1.8891751766204834e-01</stageThreshold>
      <weakClassifiers>
        <_>
          <internalNodes>
            0 -1 8 7.6898112893104553e-02</internalNodes>
          <leafValues>
            -8.0851066112518311e-01 7.6190477609634399e-01</leafValues></_>
        <_>
          <internalNodes>
            0 -1 1 2.5235628709197044e-02</internalNodes>
          <leafValues>
            -7.7558958530426025e-01 6.1959314346313477e-01</leafValues></_></weakClassifiers></_>
    <!-- stage 3 -->
    <_>
      <maxWeakCount>4</maxWeakCount>
      <stageThreshold>-5.6558960676193237e-01</stageThreshold>
      <weakClassifiers>
        <_>
          <internalNodes>
            0 -1 18 -3.9562545716762543e-03</internalNodes>
          <leafValues>
            7.0100367069244385e-01 -7.4540311098098755e-01</leafValues></_>
        <_>
          <internalNodes>
            0 -1 12 -1.5265146270394325e-02</internalNodes>
          <leafValues>
            5.1664012670516968e-01 -9.1300123929977417e-01</leafValues></_>
        <_>
          <internalNodes>
            0 -1 4 -2.5872148573398590e-02</internalNodes>
          <leafValues>
            5.0583994388580322e-01 -7.3703736066818237e-01</leafValues></_>
        <_>
          <internalNodes>
            0 -1 15 -2.4230506271123886e-02</internalNodes>
          <leafValues>
            4.4924423098564148e-01 -8.4266656637191772e-01</leafValues></_></weakClassifiers></_>
    <!-- stage 4 -->
    <_>
      <maxWeakCount>4</maxWeakCount>
      <stageThreshold>-4.4758784770965576e-01</stageThreshold>
      <weakClassifiers>
        <_>
          <internalNodes>
            0 -1 14 -1.9072648137807846e-02</internalNodes>
          <leafValues>
            6.4038169384002686e-01 -7.7996718883514404e-01</leafValues></_>
        <_>
          <internalNodes>
            0 -1 13 3.9597235620021820e-02</internalNodes>
          <leafValues>
            -8.6656713485717773e-01 4.6052110195159912e-01</leafValues></_>
        <_>
          <internalNodes>
            0 -1 11 -6.6807065159082413e-03</internalNodes>
          <leafValues>
            6.3693076372146606e-01 -6.2443631887435913e-01</leafValues></_>
        <_>
          <internalNodes>
            0 -1 9 4.4762995094060898e-03</internalNodes>
          <leafValues>
            -6.4882439374923706e-01 4.9629455804824829e-01</leafValues></_></weakClassifiers></_>
    <!-- stage 5 -->
    <_>
      <maxWeakCount>4</maxWeakCount>
      <stageThreshold>-8.6182141304016113e-01</stageThreshold>
      <weakClassifiers>
        <_>
          <internalNodes>
            0 -1 5 -2.3522228002548218e-03</internalNodes>
          <leafValues>
            5.9788864850997925e-01 -8.6434108018875122e-01</leafValues></_>
        <_>
          <internalNodes>
            0 -1 0 6.0235802084207535e-03</internalNodes>
          <leafValues>
            -6.2674999237060547e-01 5.0373715162277222e-01</leafValues></_>
        <_>
          <internalNodes>
            0 -1 17 -5.4179474711418152e-02</internalNodes>
          <leafValues>
            7.4854522943496704e-01 -3.7811559438705444e-01</leafValues></_>
        <_>
          <internalNodes>
            0 -1 6 8.8603720068931580e-02</internalNodes>
          <leafValues>
            -4.5484453439712524e-01 7.0819002389907837e-01</leafValues></_></weakClassifiers></_></stages>
  <features>
    <_>
      <rects>
        <_>
          0 4 2 12 -1.</_>
        <_>
          1 4 1 12 2.</_></rects>
      <tilted>0</tilted></_>
    <_>
      <rects>
        <_>
          0 5 6 10 -1.</_>
        <_>
          2 5 2 10 3.</_></rects>
      <tilted>0</tilted></_>
    <_>
      <rects>
        <_>
          2 7 9 5 -1.</_>
        <_>
          5 7 3 5 3.</_></rects>
      <tilted>0</tilted></_>
    <_>
      <rects>
        <_>
          3 0 13 2 -1.</_>
        <_>
          3 1 13 1 2.</_></rects>
      <tilted>0</tilted></_>
    <_>
      <rects>
        <_>
          3 8 6 4 -1.</_>
        <_>
          5 8 2 4 3.</_></rects>
      <tilted>0</tilted></_>
    <_>
      <rects>
        <_>
          4 3 4 10 -1.</_>
        <_>
          4 8 4 5 2.</_></rects>
      <tilted>0</tilted></_>
    <_>
      <rects>
        <_>
          4 11 9 6 -1.</_>
        <_>
          7 11 3 6 3.</_></rects>
      <tilted>0</tilted></_>
    <_>
      <rects>
        <_>
          6 6 9 10 -1.</_>
        <_>
          6 11 9 5 2.</_></rects>
      <tilted>0</tilted></_>
    <_>
      <rects>
        <_>
          6 8 9 6 -1.</_>
        <_>
          9 8 3 6 3.</_></rects>
      <tilted>0</tilted></_>
    <_>
      <rects>
        <_>
          6 9 2 4 -1.</_>
        <_>
          7 9 1 4 2.</_></rects>
      <tilted>0</tilted></_>
    <_>
      <rects>
        <_>
          6 11 9 2 -1.</_>
        <_>
          9 11 3 2 3.</_></rects>
      <tilted>0</tilted></_>
    <_>
      <rects>
        <_>
          6 18 8 2 -1.</_>
        <_>
          6 19 8 1 2.</_></rects>
      <tilted>0</tilted></_>
    <_>
      <rects>
        <_>
          7 2 7 8 -1.</_>
        <_>
          7 6 7 4 2.</_></rects>
      <tilted>0</tilted></_>
    <_>
      <rects>
        <_>
          8 7 5 9 -1.</_>
        <_>
          8 10 5 3 3.</_></rects>
      <tilted>0</tilted></_>
    <_>
      <rects>
        <_>
          9 7 9 3 -1.</_>
        <_>
          12 7 3 3 3.</_></rects>
      <tilted>0</tilted></_>
    <_>
      <rects>
        <_>
          9 11 8 2 -1.</_>
        <_>
          13 11 4 2 2.</_></rects>
      <tilted>0</tilted></_>
    <_>
      <rects>
        <_>
          10 3 3 9 -1.</_>
        <_>
          10 6 3 3 3.</_></rects>
      <tilted>0</tilted></_>
    <_>
      <rects>
        <_>
          12 9 6 5 -1.</_>
        <_>
          14 9 2 5 3.</_></rects>
      <tilted>0</tilted></_>
    <_>
      <rects>
        <_>
          13 9 3 3 -1.</_>
        <_>
          14 9 1 3 3.</_></rects>
      <tilted>0</tilted></_></features></cascade>
</opencv_storage>
