<?xml version="1.0"?>
<opencv_storage>
<cascade>
  <stageType>BOOST</stageType>
  <featureType>HAAR</featureType>
  <height>20</height>
  <width>20</width>
  <stageParams>
    <boostType>GAB</boostType>
    <minHitRate>9.9500000476837158e-01</minHitRate>
    <maxFalseAlarm>5.0000000000000000e-01</maxFalseAlarm>
    <weightTrimRate>9.4999999999999996e-01</weightTrimRate>
    <maxDepth>1</maxDepth>
    <maxWeakCount>100</maxWeakCount></stageParams>
  <featureParams>
    <maxCatCount>0</maxCatCount>
    <featSize>1</featSize>
    <mode>BASIC</mode></featureParams>
  <stageNum>10</stageNum>
  <stages>
    <!-- stage 0 -->
    <_>
      <maxWeakCount>32</maxWeakCount>
      <stageThreshold>-1.0485706329345703e+00</stageThreshold>
      <weakClassifiers>
        <_>
          <internalNodes>
            0 -1 413 9.6936710178852081e-04</internalNodes>
          <leafValues>
            -2.0322291553020477e-01 6.9251519441604614e-01</leafValues></_>
        <_>
          <internalNodes>
            0 -1 379 -1.6311459243297577e-02</internalNodes>
          <leafValues>
            5.2631634473800659e-01 -2.6499065756797791e-01</leafValues></_>
        <_>
          <internalNodes>
            0 -1 406 -8.0253614578396082e-04</internalNodes>
          <leafValues>
            3.6533430218696594e-01 -2.8341361880302429e-01</leafValues></_>
        <_>
          <internalNodes>
            0 -1 273 2.3257401771843433e-03</internalNodes>
          <leafValues>
            -2.2274243831634521e-01 3.8108909130096436e-01</leafValues></_>
        <_>
          <internalNodes>
            0 -1 507 -1.7940565012395382e-03</internalNodes>
          <leafValues>
            2.5921273231506348e-01 -2.9309648275375366e-01</leafValues></_>
        <_>
          <internalNodes>
            0 -1 319 2.6825781911611557e-02</internalNodes>
          <leafValues>
            -1.9465751945972443e-01 3.1740432977676392e-01</leafValues></_>
        <_>
          <internalNodes>
            0 -1 67 7.1906535886228085e-03</internalNodes>
          <leafValues>
            -1.3129101693630219e-01 3.9401906728744507e-01</leafValues></_>
        <_>
          <internalNodes>
            0 -1 159 1.4250779349822551e-04</internalNodes>
          <leafValues>
            -2.5992330908775330e-01 2.0426961779594421e-01</leafValues></_>
        <_>
          <internalNodes>
            0 -1 200 -1.2271380983293056e-03</internalNodes>
          <leafValues>
            3.6553165316581726e-01 -1.0611501336097717e-01</leafValues></_>
        <_>
          <internalNodes>
            0 -1 188 -7.7875731512904167e-03</internalNodes>
          <leafValues>
            3.2676172256469727e-01 -1.2291297316551208e-01</leafValues></_>
        <_>
          <internalNodes>
            0 -1 424 -4.7062981873750687e-02</internalNodes>
          <leafValues>
            4.9825519323348999e-01 -7.8913621604442596e-02</leafValues></_>
        <_>
          <internalNodes>
            0 -1 179 4.1369991376996040e-03</internalNodes>
          <leafValues>
            -1.3003727793693542e-01 2.8105711936950684e-01</leafValues></_>
        <_>
          <internalNodes>
            0 -1 308 -1.1064666323363781e-03</internalNodes>
          <leafValues>
            2.5154101848602295e-01 -1.2871968746185303e-01</leafValues></_>
        <_>
          <internalNodes>
            0 -1 345 -2.5028279423713684e-01</internalNodes>
          <leafValues>
            5.3739154338836670e-01 -6.1731521040201187e-02</leafValues></_>
        <_>
          <internalNodes>
            0 -1 453 -1.1231331154704094e-03</internalNodes>
          <leafValues>
            3.0521771311759949e-01 -1.1376413702964783e-01</leafValues></_>
        <_>
          <internalNodes>
            0 -1 449 -1.6774100367911160e-04</internalNodes>
          <leafValues>
            1.7848579585552216e-01 -2.0221868157386780e-01</leafValues></_>
        <_>
          <internalNodes>
            0 -1 208 -2.6398643385618925e-03</internalNodes>
          <leafValues>
            -2.7547147870063782e-01 1.3070414960384369e-01</leafValues></_>
        <_>
          <internalNodes>
            0 -1 189 -2.8765037655830383e-02</internalNodes>
          <leafValues>
            4.5910269021987915e-01 -9.2990636825561523e-02</leafValues></_>
        <_>
          <internalNodes>
            0 -1 21 -3.2504065893590450e-03</internalNodes>
          <leafValues>
            3.6643335223197937e-01 -9.0855166316032410e-02</leafValues></_>
        <_>
          <internalNodes>
            0 -1 300 -7.4492204003036022e-03</internalNodes>
          <leafValues>
            -8.1996506452560425e-01 4.6624485403299332e-02</leafValues></_>
        <_>
          <internalNodes>
            0 -1 485 -1.5824509318917990e-03</internalNodes>
          <leafValues>
            2.9356485605239868e-01 -1.2521462142467499e-01</leafValues></_>
        <_>
          <internalNodes>
            0 -1 260 3.6109171342104673e-03</internalNodes>
          <leafValues>
            5.1473949104547501e-02 -6.9836235046386719e-01</leafValues></_>
        <_>
          <internalNodes>
            0 -1 344 -3.1642236281186342e-03</internalNodes>
          <leafValues>
            -4.7129502892494202e-01 5.9091784060001373e-02</leafValues></_>
        <_>
          <internalNodes>
            0 -1 38 -2.0347074605524540e-03</internalNodes>
          <leafValues>
            2.0133171975612640e-01 -1.5759146213531494e-01</leafValues></_>
        <_>
          <internalNodes>
            0 -1 583 -1.6925014788284898e-03</internalNodes>
          <leafValues>
            1.9432185590267181e-01 -1.7133294045925140e-01</leafValues></_>
        <_>
          <internalNodes>
            0 -1 503 2.9004388488829136e-03</internalNodes>
          <leafValues>
            -1.1212033778429031e-01 2.7200984954833984e-01</leafValues></_>
        <_>
          <internalNodes>
            0 -1 356 -1.1959229595959187e-03</internalNodes>
          <leafValues>
            2.8825867176055908e-01 -1.0458254069089890e-01</leafValues></_>
        <_>
          <internalNodes>
            0 -1 407 2.9340788722038269e-02</internalNodes>
          <leafValues>
            3.6841135472059250e-02 -8.9611709117889404e-01</leafValues></_>
        <_>
          <internalNodes>
            0 -1 360 1.2597850291058421e-03</internalNodes>
          <leafValues>
            -1.2436871230602264e-01 3.4833320975303650e-01</leafValues></_>
        <_>
          <internalNodes>
            0 -1 61 -4.8310812562704086e-02</internalNodes>
          <leafValues>
            -3.5152992606163025e-01 1.0683853924274445e-01</leafValues></_>
        <_>
          <internalNodes>
            0 -1 426 -1.6202032566070557e-03</internalNodes>
          <leafValues>
            -2.4444854259490967e-01 1.2609045207500458e-01</leafValues></_>
        <_>
          <internalNodes>
            0 -1 209 -7.8121628612279892e-03</internalNodes>
          <leafValues>
            4.0383324027061462e-01 -7.9596683382987976e-02</leafValues></_></weakClassifiers></_>
    <!-- stage 1 -->
    <_>
      <maxWeakCount>47</maxWeakCount>
      <stageThreshold>-9.1800749301910400e-01</stageThreshold>
      <weakClassifiers>
        <_>
          <internalNodes>
            0 -1 417 3.5079992376267910e-03</internalNodes>
          <leafValues>
            -7.3170728981494904e-02 6.9565218687057495e-01</leafValues></_>
        <_>
          <internalNodes>
            0 -1 403 5.1955124363303185e-03</internalNodes>
          <leafValues>
            -1.4030590653419495e-01 5.8357924222946167e-01</leafValues></_>
        <_>
          <internalNodes>
            0 -1 507 -2.7377880178391933e-03</internalNodes>
          <leafValues>
            3.2180574536323547e-01 -2.5019130110740662e-01</leafValues></_>
        <_>
          <internalNodes>
            0 -1 489 -2.3915420752018690e-03</internalNodes>
          <leafValues>
            2.1795539557933807e-01 -2.5088816881179810e-01</leafValues></_>
        <_>
          <internalNodes>
            0 -1 280 -2.1738386712968349e-03</internalNodes>
          <leafValues>
            2.5060930848121643e-01 -1.9282306730747223e-01</leafValues></_>
        <_>
          <internalNodes>
            0 -1 485 -8.5783598478883505e-04</internalNodes>
          <leafValues>
            2.5656783580780029e-01 -1.4974847435951233e-01</leafValues></_>
        <_>
          <internalNodes>
            0 -1 188 -1.2469101697206497e-02</internalNodes>
          <leafValues>
            4.1319662332534790e-01 -9.1561034321784973e-02</leafValues></_>
        <_>
          <internalNodes>
            0 -1 124 7.6822738628834486e-04</internalNodes>
          <leafValues>
            -1.6696912050247192e-01 2.2640678286552429e-01</leafValues></_>
        <_>
          <internalNodes>
            0 -1 207 -5.9973401948809624e-04</internalNodes>
          <leafValues>
            2.5676074624061584e-01 -1.3303188979625702e-01</leafValues></_>
        <_>
          <internalNodes>
            0 -1 375 -1.8888815538957715e-03</internalNodes>
          <leafValues>
            3.1531539559364319e-01 -1.0299026966094971e-01</leafValues></_>
        <_>
          <internalNodes>
            0 -1 171 1.6889184480533004e-03</internalNodes>
          <leafValues>
            -1.8445272743701935e-01 1.8821059167385101e-01</leafValues></_>
        <_>
          <internalNodes>
            0 -1 114 -2.0461753010749817e-02</internalNodes>
          <leafValues>
            -5.3129184246063232e-01 6.1711922287940979e-02</leafValues></_>
        <_>
          <internalNodes>
            0 -1 329 -1.1086007580161095e-02</internalNodes>
          <leafValues>
            -3.3556389808654785e-01 9.4282262027263641e-02</leafValues></_>
        <_>
          <internalNodes>
            0 -1 479 2.1948786452412605e-03</internalNodes>
          <leafValues>
            -1.2558011710643768e-01 2.6593378186225891e-01</leafValues></_>
        <_>
          <internalNodes>
            0 -1 533 7.5986473821103573e-03</internalNodes>
          <leafValues>
            -1.0003580898046494e-01 3.0884805321693420e-01</leafValues></_>
        <_>
          <internalNodes>
            0 -1 100 1.2592330574989319e-02</internalNodes>
          <leafValues>
            5.8891586959362030e-02 -5.3662633895874023e-01</leafValues></_>
        <_>
          <internalNodes>
            0 -1 294 -2.2579031065106392e-03</internalNodes>
          <leafValues>
            2.1129237115383148e-01 -1.4527502655982971e-01</leafValues></_>
        <_>
          <internalNodes>
            0 -1 387 -4.8634130507707596e-03</internalNodes>
          <leafValues>
            -5.2027815580368042e-01 6.2281157821416855e-02</leafValues></_>
        <_>
          <internalNodes>
            0 -1 105 1.0492286086082458e-01</internalNodes>
          <leafValues>
            -8.0541484057903290e-02 3.8357132673263550e-01</leafValues></_>
        <_>
          <internalNodes>
            0 -1 205 -2.2341558709740639e-02</internalNodes>
          <leafValues>
            3.8699373602867126e-01 -8.7798669934272766e-02</leafValues></_>
        <_>
          <internalNodes>
            0 -1 200 -1.1911265319213271e-03</internalNodes>
          <leafValues>
            2.7081498503684998e-01 -1.0777568072080612e-01</leafValues></_>
        <_>
          <internalNodes>
            0 -1 9 -9.7027121228165925e-05</internalNodes>
          <leafValues>
            -1.8963865935802460e-01 1.5832538902759552e-01</leafValues></_>
        <_>
          <internalNodes>
            0 -1 22 4.7900220379233360e-03</internalNodes>
          <leafValues>
            -1.4111885428428650e-01 2.3879756033420563e-01</leafValues></_>
        <_>
          <internalNodes>
            0 -1 56 4.4896653853356838e-03</internalNodes>
          <leafValues>
            -7.2962686419487000e-02 3.9225533604621887e-01</leafValues></_>
        <_>
          <internalNodes>
            0 -1 588 -2.1006176248192787e-03</internalNodes>
          <leafValues>
            -3.3460095524787903e-01 9.2051111161708832e-02</leafValues></_>
        <_>
          <internalNodes>
            0 -1 238 1.8741284729912877e-03</internalNodes>
          <leafValues>
            -7.2672881186008453e-02 4.0490967035293579e-01</leafValues></_>
        <_>
          <internalNodes>
            0 -1 79 -4.3921247124671936e-03</internalNodes>
          <leafValues>
            -3.4268015623092651e-01 8.5606299340724945e-02</leafValues></_>
        <_>
          <internalNodes>
            0 -1 142 -1.0724854655563831e-03</internalNodes>
          <leafValues>
            2.7493944764137268e-01 -1.0362796485424042e-01</leafValues></_>
        <_>
          <internalNodes>
            0 -1 510 5.2963243797421455e-03</internalNodes>
          <leafValues>
            6.1743285506963730e-02 -4.7313040494918823e-01</leafValues></_>
        <_>
          <internalNodes>
            0 -1 265 -3.6129176616668701e-02</internalNodes>
          <leafValues>
            -3.8360738754272461e-01 6.7586608231067657e-02</leafValues></_>
        <_>
          <internalNodes>
            0 -1 331 9.0060057118535042e-04</internalNodes>
          <leafValues>
            -1.3263884186744690e-01 2.0572830736637115e-01</leafValues></_>
        <_>
          <internalNodes>
            0 -1 386 -3.2167900353670120e-03</internalNodes>
          <leafValues>
            -5.7612228393554688e-01 4.6280786395072937e-02</leafValues></_>
        <_>
          <internalNodes>
            0 -1 169 -2.5477087125182152e-02</internalNodes>
          <leafValues>
            3.3221372961997986e-01 -7.8211806714534760e-02</leafValues></_>
        <_>
          <internalNodes>
            0 -1 557 -6.1420905403792858e-03</internalNodes>
          <leafValues>
            1.9432136416435242e-01 -1.2809512019157410e-01</leafValues></_>
        <_>
          <internalNodes>
            0 -1 450 -2.0516947843134403e-03</internalNodes>
          <leafValues>
            1.4269249141216278e-01 -1.8779420852661133e-01</leafValues></_>
        <_>
          <internalNodes>
            0 -1 528 -2.6613499969244003e-02</internalNodes>
          <leafValues>
            -4.5605215430259705e-01 5.5918794125318527e-02</leafValues></_>
        <_>
          <internalNodes>
            0 -1 411 3.2059599179774523e-03</internalNodes>
          <leafValues>
            -1.0858357697725296e-01 2.2703856229782104e-01</leafValues></_>
        <_>
          <internalNodes>
            0 -1 286 9.5477269496768713e-04</internalNodes>
          <leafValues>
            9.1114833950996399e-02 -2.8326702117919922e-01</leafValues></_>
        <_>
          <internalNodes>
            0 -1 20 3.5587098682299256e-04</internalNodes>
          <leafValues>
            1.5539737045764923e-01 -1.6567964851856232e-01</leafValues></_>
        <_>
          <internalNodes>
            0 -1 253 -1.4980442356318235e-03</internalNodes>
          <leafValues>
            3.0549472570419312e-01 -8.6462900042533875e-02</leafValues></_>
        <_>
          <internalNodes>
            0 -1 257 1.3696065172553062e-02</internalNodes>
          <leafValues>
            3.3413626253604889e-02 -7.8231334686279297e-01</leafValues></_>
        <_>
          <internalNodes>
            0 -1 534 -1.4864759519696236e-02</internalNodes>
          <leafValues>
            4.2283067107200623e-01 -6.5994702279567719e-02</leafValues></_>
        <_>
          <internalNodes>
            0 -1 6 1.1632746085524559e-02</internalNodes>
          <leafValues>
            -2.6836214587092400e-02 8.4366565942764282e-01</leafValues></_>
        <_>
          <internalNodes>
            0 -1 162 -2.6140417903661728e-03</internalNodes>
          <leafValues>
            -3.6252483725547791e-01 7.7941820025444031e-02</leafValues></_>
        <_>
          <internalNodes>
            0 -1 351 -3.5584583878517151e-02</internalNodes>
          <leafValues>
            -6.7422413825988770e-01 3.6292672157287598e-02</leafValues></_>
        <_>
          <internalNodes>
            0 -1 167 1.6201660037040710e-03</internalNodes>
          <leafValues>
            -1.0332646965980530e-01 2.7006146311759949e-01</leafValues></_>
        <_>
          <internalNodes>
            0 -1 178 3.1995354220271111e-04</internalNodes>
          <leafValues>
            -1.3866661489009857e-01 1.9006748497486115e-01</leafValues></_></weakClassifiers></_>
    <!-- stage 2 -->
    <_>
      <maxWeakCount>51</maxWeakCount>
      <stageThreshold>-8.1411504745483398e-01</stageThreshold>
      <weakClassifiers>
        <_>
          <internalNodes>
            0 -1 413 3.0323071405291557e-03</internalNodes>
          <leafValues>
            1.3240418396890163e-02 6.7038625478744507e-01</leafValues></_>
        <_>
          <internalNodes>
            0 -1 403 2.7878200635313988e-03</internalNodes>
          <leafValues>
            -2.0716577768325806e-01 3.8650247454643250e-01</leafValues></_>
        <_>
          <internalNodes>
            0 -1 489 -1.6883504576981068e-03</internalNodes>
          <leafValues>
            2.6059117913246155e-01 -2.6064169406890869e-01</leafValues></_>
        <_>
          <internalNodes>
            0 -1 349 1.7551277996972203e-03</internalNodes>
          <leafValues>
            -2.3165766894817352e-01 2.0528516173362732e-01</leafValues></_>
        <_>
          <internalNodes>
            0 -1 488 -1.7724565695971251e-03</internalNodes>
          <leafValues>
            1.2349857389926910e-01 -2.7779760956764221e-01</leafValues></_>
        <_>
          <internalNodes>
            0 -1 272 8.9312408817932010e-04</internalNodes>
          <leafValues>
            -1.7854522168636322e-01 1.8801072239875793e-01</leafValues></_>
        <_>
          <internalNodes>
            0 -1 58 8.1098582595586777e-03</internalNodes>
          <leafValues>
            -1.2549924850463867e-01 2.3428082466125488e-01</leafValues></_>
        <_>
          <internalNodes>
            0 -1 123 1.2435116805136204e-02</internalNodes>
          <leafValues>
            5.5817682296037674e-02 -4.8900002241134644e-01</leafValues></_>
        <_>
          <internalNodes>
            0 -1 201 -1.8148202449083328e-02</internalNodes>
          <leafValues>
            5.3748226165771484e-01 -5.3824789822101593e-02</leafValues></_>
        <_>
          <internalNodes>
            0 -1 252 8.8338297791779041e-04</internalNodes>
          <leafValues>
            1.4943946897983551e-01 -1.9220729172229767e-01</leafValues></_>
        <_>
          <internalNodes>
            0 -1 3 3.6988675594329834e-02</internalNodes>
          <leafValues>
            -6.5162546932697296e-02 4.4651585817337036e-01</leafValues></_>
        <_>
          <internalNodes>
            0 -1 408 -7.5727924704551697e-03</internalNodes>
          <leafValues>
            -3.1323873996734619e-01 9.7632102668285370e-02</leafValues></_>
        <_>
          <internalNodes>
            0 -1 112 -9.2163421213626862e-03</internalNodes>
          <leafValues>
            -4.7809353470802307e-01 5.4170012474060059e-02</leafValues></_>
        <_>
          <internalNodes>
            0 -1 563 3.3004716970026493e-03</internalNodes>
          <leafValues>
            4.3482776731252670e-02 -5.3606241941452026e-01</leafValues></_>
        <_>
          <internalNodes>
            0 -1 210 1.8688475713133812e-02</internalNodes>
          <leafValues>
            -5.1982704550027847e-02 4.9880239367485046e-01</leafValues></_>
        <_>
          <internalNodes>
            0 -1 207 -2.1257020125631243e-04</internalNodes>
          <leafValues>
            1.7208714783191681e-01 -1.4592203497886658e-01</leafValues></_>
        <_>
          <internalNodes>
            0 -1 188 -1.2248246930539608e-02</internalNodes>
          <leafValues>
            3.5703739523887634e-01 -7.9005680978298187e-02</leafValues></_>
        <_>
          <internalNodes>
            0 -1 484 7.6609186362475157e-04</internalNodes>
          <leafValues>
            -1.1376277357339859e-01 1.9667629897594452e-01</leafValues></_>
        <_>
          <internalNodes>
            0 -1 309 -2.2671040147542953e-02</internalNodes>
          <leafValues>
            -5.1083135604858398e-01 4.2352281510829926e-02</leafValues></_>
        <_>
          <internalNodes>
            0 -1 232 -7.0416301488876343e-02</internalNodes>
          <leafValues>
            5.9317159652709961e-01 -3.9463423192501068e-02</leafValues></_>
        <_>
          <internalNodes>
            0 -1 506 2.0167520269751549e-03</internalNodes>
          <leafValues>
            -6.4955286681652069e-02 3.2995569705963135e-01</leafValues></_>
        <_>
          <internalNodes>
            0 -1 526 4.4358880259096622e-03</internalNodes>
          <leafValues>
            3.6775872111320496e-02 -6.8116372823715210e-01</leafValues></_>
        <_>
          <internalNodes>
            0 -1 572 -4.3443245813250542e-03</internalNodes>
          <leafValues>
            -7.5023567676544189e-01 2.7968449518084526e-02</leafValues></_>
        <_>
          <internalNodes>
            0 -1 200 -6.3454452902078629e-04</internalNodes>
          <leafValues>
            1.9984821975231171e-01 -1.2450329214334488e-01</leafValues></_>
        <_>
          <internalNodes>
            0 -1 580 -1.1506304144859314e-03</internalNodes>
          <leafValues>
            1.5958636999130249e-01 -1.5507020056247711e-01</leafValues></_>
        <_>
          <internalNodes>
            0 -1 292 9.2068277299404144e-03</internalNodes>
          <leafValues>
            4.6388331800699234e-02 -5.7795256376266479e-01</leafValues></_>
        <_>
          <internalNodes>
            0 -1 216 1.8365144729614258e-02</internalNodes>
          <leafValues>
            -5.9606879949569702e-02 4.4512835144996643e-01</leafValues></_>
        <_>
          <internalNodes>
            0 -1 121 -8.3788635674864054e-04</internalNodes>
          <leafValues>
            2.0735596120357513e-01 -1.1383034288883209e-01</leafValues></_>
        <_>
          <internalNodes>
            0 -1 110 -3.0835899524390697e-03</internalNodes>
          <leafValues>
            -5.6104427576065063e-01 5.1449101418256760e-02</leafValues></_>
        <_>
          <internalNodes>
            0 -1 365 6.0471415054053068e-04</internalNodes>
          <leafValues>
            -1.6649873554706573e-01 1.4729991555213928e-01</leafValues></_>
        <_>
          <internalNodes>
            0 -1 389 -9.5925037749111652e-04</internalNodes>
          <leafValues>
            -2.3843269050121307e-01 9.6286475658416748e-02</leafValues></_>
        <_>
          <internalNodes>
            0 -1 222 -2.4956297129392624e-03</internalNodes>
          <leafValues>
            -3.8008522987365723e-01 6.2246512621641159e-02</leafValues></_>
        <_>
          <internalNodes>
            0 -1 491 4.7894809395074844e-03</internalNodes>
          <leafValues>
            3.0420156195759773e-02 -7.4266833066940308e-01</leafValues></_>
        <_>
          <internalNodes>
            0 -1 522 1.4966567978262901e-03</internalNodes>
          <leafValues>
            -1.3044849038124084e-01 1.6370622813701630e-01</leafValues></_>
        <_>
          <internalNodes>
            0 -1 398 -1.0496732778847218e-02</internalNodes>
          <leafValues>
            -3.5560664534568787e-01 6.5898858010768890e-02</leafValues></_>
        <_>
          <internalNodes>
            0 -1 322 9.6881017088890076e-04</internalNodes>
          <leafValues>
            -9.8392412066459656e-02 2.5295913219451904e-01</leafValues></_>
        <_>
          <internalNodes>
            0 -1 341 1.1174429208040237e-02</internalNodes>
          <leafValues>
            -4.4825632125139236e-02 4.7920453548431396e-01</leafValues></_>
        <_>
          <internalNodes>
            0 -1 428 2.5634339544922113e-03</internalNodes>
          <leafValues>
            5.5795457214117050e-02 -4.3552070856094360e-01</leafValues></_>
        <_>
          <internalNodes>
            0 -1 11 5.2392121870070696e-04</internalNodes>
          <leafValues>
            -1.4615555107593536e-01 1.4762820303440094e-01</leafValues></_>
        <_>
          <internalNodes>
            0 -1 240 -5.7267528027296066e-03</internalNodes>
          <leafValues>
            2.4697130918502808e-01 -9.5494523644447327e-02</leafValues></_>
        <_>
          <internalNodes>
            0 -1 511 -3.8535424391739070e-04</internalNodes>
          <leafValues>
            1.5213540196418762e-01 -1.6725510358810425e-01</leafValues></_>
        <_>
          <internalNodes>
            0 -1 154 3.4666582942008972e-03</internalNodes>
          <leafValues>
            4.0787592530250549e-02 -5.5452859401702881e-01</leafValues></_>
        <_>
          <internalNodes>
            0 -1 282 -9.8015961702913046e-04</internalNodes>
          <leafValues>
            -2.9048135876655579e-01 7.7954143285751343e-02</leafValues></_>
        <_>
          <internalNodes>
            0 -1 559 -4.2040962725877762e-03</internalNodes>
          <leafValues>
            3.1310254335403442e-01 -7.2321489453315735e-02</leafValues></_>
        <_>
          <internalNodes>
            0 -1 125 -1.4163978630676866e-03</internalNodes>
          <leafValues>
            2.8669545054435730e-01 -8.0387048423290253e-02</leafValues></_>
        <_>
          <internalNodes>
            0 -1 550 6.5063079819083214e-03</internalNodes>
          <leafValues>
            6.6862896084785461e-02 -3.6724248528480530e-01</leafValues></_>
        <_>
          <internalNodes>
            0 -1 532 1.9315296784043312e-02</internalNodes>
          <leafValues>
            -6.7403711378574371e-02 3.6304342746734619e-01</leafValues></_>
        <_>
          <internalNodes>
            0 -1 285 -3.5222910344600677e-02</internalNodes>
          <leafValues>
            4.4716170430183411e-01 -4.8265896737575531e-02</leafValues></_>
        <_>
          <internalNodes>
            0 -1 116 5.6752547621726990e-02</internalNodes>
          <leafValues>
            -3.1033016741275787e-02 6.7114204168319702e-01</leafValues></_>
        <_>
          <internalNodes>
            0 -1 573 -1.2731580063700676e-03</internalNodes>
          <leafValues>
            1.7955018579959869e-01 -1.3123318552970886e-01</leafValues></_>
        <_>
          <internalNodes>
            0 -1 544 -4.6849550562910736e-04</internalNodes>
          <leafValues>
            -2.0894990861415863e-01 1.0541146993637085e-01</leafValues></_></weakClassifiers></_>
    <!-- stage 3 -->
    <_>
      <maxWeakCount>60</maxWeakCount>
      <stageThreshold>-6.9999611377716064e-01</stageThreshold>
      <weakClassifiers>
        <_>
          <internalNodes>
            0 -1 417 6.6577242687344551e-03</internalNodes>
          <leafValues>
            8.0445542931556702e-02 6.8089431524276733e-01</leafValues></_>
        <_>
          <internalNodes>
            0 -1 435 2.0779345650225878e-03</internalNodes>
          <leafValues>
            -1.7210344970226288e-01 3.9287227392196655e-01</leafValues></_>
        <_>
          <internalNodes>
            0 -1 494 4.9385079182684422e-03</internalNodes>
          <leafValues>
            -2.5183159112930298e-01 2.0136779546737671e-01</leafValues></_>
        <_>
          <internalNodes>
            0 -1 274 1.5201258938759565e-03</internalNodes>
          <leafValues>
            -2.0433419942855835e-01 1.9571557641029358e-01</leafValues></_>
        <_>
          <internalNodes>
            0 -1 57 9.1206431388854980e-03</internalNodes>
          <leafValues>
            -1.4666604995727539e-01 2.1624115109443665e-01</leafValues></_>
        <_>
          <internalNodes>
            0 -1 180 -4.8477044329047203e-03</internalNodes>
          <leafValues>
            -2.9397088289260864e-01 7.2232380509376526e-02</leafValues></_>
        <_>
          <internalNodes>
            0 -1 569 1.3100432232022285e-02</internalNodes>
          <leafValues>
            -5.8400705456733704e-02 3.5336825251579285e-01</leafValues></_>
        <_>
          <internalNodes>
            0 -1 241 1.0515366494655609e-01</internalNodes>
          <leafValues>
            -5.6564722210168839e-02 4.2377734184265137e-01</leafValues></_>
        <_>
          <internalNodes>
            0 -1 412 9.6413440769538283e-04</internalNodes>
          <leafValues>
            -1.4182084798812866e-01 1.6090217232704163e-01</leafValues></_>
        <_>
          <internalNodes>
            0 -1 405 1.3265976682305336e-02</internalNodes>
          <leafValues>
            4.6479865908622742e-02 -5.5525046586990356e-01</leafValues></_>
        <_>
          <internalNodes>
            0 -1 346 6.9194352254271507e-03</internalNodes>
          <leafValues>
            7.0932887494564056e-02 -3.3704528212547302e-01</leafValues></_>
        <_>
          <internalNodes>
            0 -1 561 3.8952743634581566e-03</internalNodes>
          <leafValues>
            3.4839805215597153e-02 -6.3591223955154419e-01</leafValues></_>
        <_>
          <internalNodes>
            0 -1 201 4.3158177286386490e-03</internalNodes>
          <leafValues>
            -1.1224965006113052e-01 1.9406242668628693e-01</leafValues></_>
        <_>
          <internalNodes>
            0 -1 203 -2.3317428305745125e-02</internalNodes>
          <leafValues>
            4.7889679670333862e-01 -5.3778138011693954e-02</leafValues></_>
        <_>
          <internalNodes>
            0 -1 78 4.7197593376040459e-03</internalNodes>
          <leafValues>
            3.5670865327119827e-02 -6.6647171974182129e-01</leafValues></_>
        <_>
          <internalNodes>
            0 -1 486 3.2716398127377033e-03</internalNodes>
          <leafValues>
            -1.2465025484561920e-01 1.7191103100776672e-01</leafValues></_>
        <_>
          <internalNodes>
            0 -1 431 -3.4037353470921516e-03</internalNodes>
          <leafValues>
            -4.5380008220672607e-01 4.9984876066446304e-02</leafValues></_>
        <_>
          <internalNodes>
            0 -1 433 2.6252130046486855e-03</internalNodes>
          <leafValues>
            -9.1308787465095520e-02 2.4211648106575012e-01</leafValues></_>
        <_>
          <internalNodes>
            0 -1 183 1.0885700583457947e-02</internalNodes>
          <leafValues>
            -7.5999677181243896e-02 2.7189111709594727e-01</leafValues></_>
        <_>
          <internalNodes>
            0 -1 423 -1.8733097240328789e-03</internalNodes>
          <leafValues>
            -2.6678368449211121e-01 8.0139711499214172e-02</leafValues></_>
        <_>
          <internalNodes>
            0 -1 514 -9.7446143627166748e-04</internalNodes>
          <leafValues>
            2.0953896641731262e-01 -1.1379456520080566e-01</leafValues></_>
        <_>
          <internalNodes>
            0 -1 45 -1.1811323929578066e-04</internalNodes>
          <leafValues>
            1.6656625270843506e-01 -1.3912931084632874e-01</leafValues></_>
        <_>
          <internalNodes>
            0 -1 264 1.8645294010639191e-02</internalNodes>
          <leafValues>
            4.1510023176670074e-02 -4.8323339223861694e-01</leafValues></_>
        <_>
          <internalNodes>
            0 -1 381 2.7508176863193512e-03</internalNodes>
          <leafValues>
            -1.1874923110008240e-01 1.6381651163101196e-01</leafValues></_>
        <_>
          <internalNodes>
            0 -1 546 -3.6601459141820669e-03</internalNodes>
          <leafValues>
            -4.6587640047073364e-01 4.5051179826259613e-02</leafValues></_>
        <_>
          <internalNodes>
            0 -1 291 5.8761373162269592e-02</internalNodes>
          <leafValues>
            -3.8639411330223083e-02 5.8681076765060425e-01</leafValues></_>
        <_>
          <internalNodes>
            0 -1 14 3.7974887527525425e-03</internalNodes>
          <leafValues>
            4.4649962335824966e-02 -5.5561256408691406e-01</leafValues></_>
        <_>
          <internalNodes>
            0 -1 565 3.4285774454474449e-03</internalNodes>
          <leafValues>
            2.7807410806417465e-02 -6.3403892517089844e-01</leafValues></_>
        <_>
          <internalNodes>
            0 -1 481 1.6922904178500175e-03</internalNodes>
          <leafValues>
            -1.3546086847782135e-01 1.3641959428787231e-01</leafValues></_>
        <_>
          <internalNodes>
            0 -1 472 1.3421982526779175e-02</internalNodes>
          <leafValues>
            4.5930765569210052e-02 -4.4570884108543396e-01</leafValues></_>
        <_>
          <internalNodes>
            0 -1 94 2.4422742426395416e-02</internalNodes>
          <leafValues>
            2.9599335044622421e-02 -6.1291682720184326e-01</leafValues></_>
        <_>
          <internalNodes>
            0 -1 357 -3.5255691036581993e-03</internalNodes>
          <leafValues>
            2.0954108238220215e-01 -8.9603386819362640e-02</leafValues></_>
        <_>
          <internalNodes>
            0 -1 84 1.9522469490766525e-02</internalNodes>
          <leafValues>
            -6.0007855296134949e-02 3.5800296068191528e-01</leafValues></_>
        <_>
          <internalNodes>
            0 -1 535 -2.5676810182631016e-03</internalNodes>
          <leafValues>
            -2.5336605310440063e-01 7.8638859093189240e-02</leafValues></_>
        <_>
          <internalNodes>
            0 -1 425 -4.0844455361366272e-03</internalNodes>
          <leafValues>
            -6.1246788501739502e-01 2.9250858351588249e-02</leafValues></_>
        <_>
          <internalNodes>
            0 -1 221 -2.3520170361734927e-04</internalNodes>
          <leafValues>
            1.2867584824562073e-01 -1.4043974876403809e-01</leafValues></_>
        <_>
          <internalNodes>
            0 -1 320 -1.5190737321972847e-02</internalNodes>
          <leafValues>
            -3.5512942075729370e-01 5.0568573176860809e-02</leafValues></_>
        <_>
          <internalNodes>
            0 -1 181 8.2987025380134583e-03</internalNodes>
          <leafValues>
            3.1896300613880157e-02 -5.2874356508255005e-01</leafValues></_>
        <_>
          <internalNodes>
            0 -1 48 3.4955628216266632e-02</internalNodes>
          <leafValues>
            -6.9420568645000458e-02 3.0257609486579895e-01</leafValues></_>
        <_>
          <internalNodes>
            0 -1 95 -6.8938806653022766e-03</internalNodes>
          <leafValues>
            1.9171717762947083e-01 -1.1283870041370392e-01</leafValues></_>
        <_>
          <internalNodes>
            0 -1 500 -3.4549431875348091e-03</internalNodes>
          <leafValues>
            3.2555237412452698e-01 -5.7579435408115387e-02</leafValues></_>
        <_>
          <internalNodes>
            0 -1 267 -7.3648369871079922e-03</internalNodes>
          <leafValues>
            -3.7765356898307800e-01 5.5944450199604034e-02</leafValues></_>
        <_>
          <internalNodes>
            0 -1 591 -1.8858321011066437e-02</internalNodes>
          <leafValues>
            5.4728209972381592e-01 -3.8869846612215042e-02</leafValues></_>
        <_>
          <internalNodes>
            0 -1 392 -2.6572603732347488e-02</internalNodes>
          <leafValues>
            -3.0227714776992798e-01 6.8654276430606842e-02</leafValues></_>
        <_>
          <internalNodes>
            0 -1 463 7.5755976140499115e-03</internalNodes>
          <leafValues>
            -3.9838790893554688e-02 5.0976914167404175e-01</leafValues></_>
        <_>
          <internalNodes>
            0 -1 466 -3.9881505072116852e-03</internalNodes>
          <leafValues>
            -3.0658897757530212e-01 7.4986100196838379e-02</leafValues></_>
        <_>
          <internalNodes>
            0 -1 370 -7.8006065450608730e-03</internalNodes>
          <leafValues>
            2.3733451962471008e-01 -8.8435076177120209e-02</leafValues></_>
        <_>
          <internalNodes>
            0 -1 259 5.8208843693137169e-03</internalNodes>
          <leafValues>
            2.8040548786520958e-02 -6.3256382942199707e-01</leafValues></_>
        <_>
          <internalNodes>
            0 -1 239 -5.0398367457091808e-03</internalNodes>
          <leafValues>
            2.5125077366828918e-01 -8.3041809499263763e-02</leafValues></_>
        <_>
          <internalNodes>
            0 -1 192 -4.8796570627018809e-04</internalNodes>
          <leafValues>
            2.1790777146816254e-01 -1.2783169746398926e-01</leafValues></_>
        <_>
          <internalNodes>
            0 -1 101 3.5086227580904961e-03</internalNodes>
          <leafValues>
            7.3007166385650635e-02 -3.0267399549484253e-01</leafValues></_>
        <_>
          <internalNodes>
            0 -1 384 -5.2785757929086685e-02</internalNodes>
          <leafValues>
            5.1319074630737305e-01 -4.1844736784696579e-02</leafValues></_>
        <_>
          <internalNodes>
            0 -1 524 4.8960167914628983e-03</internalNodes>
          <leafValues>
            9.0828217566013336e-02 -2.6214995980262756e-01</leafValues></_>
        <_>
          <internalNodes>
            0 -1 487 7.4412622489035130e-03</internalNodes>
          <leafValues>
            -1.4175860583782196e-01 1.4694888889789581e-01</leafValues></_>
        <_>
          <internalNodes>
            0 -1 173 9.7097118850797415e-04</internalNodes>
          <leafValues>
            -1.0401946306228638e-01 1.8317815661430359e-01</leafValues></_>
        <_>
          <internalNodes>
            0 -1 361 -2.2121444344520569e-03</internalNodes>
          <leafValues>
            1.7367738485336304e-01 -1.0869605839252472e-01</leafValues></_>
        <_>
          <internalNodes>
            0 -1 23 4.9372363835573196e-02</internalNodes>
          <leafValues>
            5.0381179898977280e-02 -3.9751321077346802e-01</leafValues></_>
        <_>
          <internalNodes>
            0 -1 239 4.1752615943551064e-03</internalNodes>
          <leafValues>
            -8.5471719503402710e-02 2.3173530399799347e-01</leafValues></_>
        <_>
          <internalNodes>
            0 -1 575 -7.4512162245810032e-04</internalNodes>
          <leafValues>
            1.4699086546897888e-01 -1.2911561131477356e-01</leafValues></_>
        <_>
          <internalNodes>
            0 -1 215 -1.4421134255826473e-03</internalNodes>
          <leafValues>
            1.9047468900680542e-01 -9.7487762570381165e-02</leafValues></_></weakClassifiers></_>
    <!-- stage 4 -->
    <_>
      <maxWeakCount>68</maxWeakCount>
      <stageThreshold>-7.2828257083892822e-01</stageThreshold>
      <weakClassifiers>
        <_>
          <internalNodes>
            0 -1 416 1.7788885161280632e-03</internalNodes>
          <leafValues>
            -7.1556349284946918e-03 5.4520916938781738e-01</leafValues></_>
        <_>
          <internalNodes>
            0 -1 53 9.4528049230575562e-03</internalNodes>
          <leafValues>
            -1.5055552124977112e-01 3.9794388413429260e-01</leafValues></_>
        <_>
          <internalNodes>
            0 -1 482 4.5466199517250061e-03</internalNodes>
          <leafValues>
            -2.0523336529731750e-01 2.8506949543952942e-01</leafValues></_>
        <_>
          <internalNodes>
            0 -1 420 -1.2660371139645576e-03</internalNodes>
          <leafValues>
            1.4964170753955841e-01 -2.4999123811721802e-01</leafValues></_>
        <_>
          <internalNodes>
            0 -1 280 -2.3454437032341957e-03</internalNodes>
          <leafValues>
            2.0391225814819336e-01 -1.7068861424922943e-01</leafValues></_>
        <_>
          <internalNodes>
            0 -1 98 7.5202267616987228e-03</internalNodes>
          <leafValues>
            -9.7019493579864502e-02 3.2583492994308472e-01</leafValues></_>
        <_>
          <internalNodes>
            0 -1 130 -1.4216059353202581e-03</internalNodes>
          <leafValues>
            2.6680916547775269e-01 -1.0058863461017609e-01</leafValues></_>
        <_>
          <internalNodes>
            0 -1 174 1.3345247134566307e-02</internalNodes>
          <leafValues>
            -7.2758793830871582e-02 3.4311240911483765e-01</leafValues></_>
        <_>
          <internalNodes>
            0 -1 12 1.3359021395444870e-02</internalNodes>
          <leafValues>
            -7.1614868938922882e-02 3.3626267313957214e-01</leafValues></_>
        <_>
          <internalNodes>
            0 -1 31 1.5153701417148113e-02</internalNodes>
          <leafValues>
            -8.5103690624237061e-02 3.1631374359130859e-01</leafValues></_>
        <_>
          <internalNodes>
            0 -1 77 6.3147903420031071e-03</internalNodes>
          <leafValues>
            4.8730555921792984e-02 -6.8480932712554932e-01</leafValues></_>
        <_>
          <internalNodes>
            0 -1 336 1.1214517289772630e-03</internalNodes>
          <leafValues>
            -9.8783746361732483e-02 2.7301079034805298e-01</leafValues></_>
        <_>
          <internalNodes>
            0 -1 473 -3.7829377688467503e-03</internalNodes>
          <leafValues>
            -2.6550388336181641e-01 8.8422760367393494e-02</leafValues></_>
        <_>
          <internalNodes>
            0 -1 113 1.8330996856093407e-02</internalNodes>
          <leafValues>
            4.6310909092426300e-02 -4.9791911244392395e-01</leafValues></_>
        <_>
          <internalNodes>
            0 -1 136 1.6525401733815670e-03</internalNodes>
          <leafValues>
            -9.0116634964942932e-02 2.7182397246360779e-01</leafValues></_>
        <_>
          <internalNodes>
            0 -1 597 2.3726308718323708e-03</internalNodes>
          <leafValues>
            9.6645660698413849e-02 -2.3818691074848175e-01</leafValues></_>
        <_>
          <internalNodes>
            0 -1 483 -2.8482801280915737e-03</internalNodes>
          <leafValues>
            2.2373378276824951e-01 -9.8487235605716705e-02</leafValues></_>
        <_>
          <internalNodes>
            0 -1 362 3.1080385670065880e-03</internalNodes>
          <leafValues>
            -8.8318914175033569e-02 2.7578273415565491e-01</leafValues></_>
        <_>
          <internalNodes>
            0 -1 586 1.4576321700587869e-03</internalNodes>
          <leafValues>
            -1.1680751293897629e-01 1.9903194904327393e-01</leafValues></_>
        <_>
          <internalNodes>
            0 -1 427 -3.3178301528096199e-03</internalNodes>
          <leafValues>
            -5.5368840694427490e-01 4.4480953365564346e-02</leafValues></_>
        <_>
          <internalNodes>
            0 -1 578 -2.2870504762977362e-03</internalNodes>
          <leafValues>
            1.9366696476936340e-01 -1.1314485967159271e-01</leafValues></_>
        <_>
          <internalNodes>
            0 -1 18 4.4813416898250580e-03</internalNodes>
          <leafValues>
            3.3136472105979919e-02 -6.8384277820587158e-01</leafValues></_>
        <_>
          <internalNodes>
            0 -1 27 1.0335262119770050e-01</internalNodes>
          <leafValues>
            3.2232318073511124e-02 -5.6147325038909912e-01</leafValues></_>
        <_>
          <internalNodes>
            0 -1 242 4.1927758604288101e-02</internalNodes>
          <leafValues>
            4.3261200189590454e-02 -4.1843044757843018e-01</leafValues></_>
        <_>
          <internalNodes>
            0 -1 440 2.2504604421555996e-03</internalNodes>
          <leafValues>
            -1.3327868282794952e-01 1.7650389671325684e-01</leafValues></_>
        <_>
          <internalNodes>
            0 -1 327 6.9923706352710724e-02</internalNodes>
          <leafValues>
            3.5426270216703415e-02 -6.3113820552825928e-01</leafValues></_>
        <_>
          <internalNodes>
            0 -1 460 -3.8699770811945200e-04</internalNodes>
          <leafValues>
            1.4680595695972443e-01 -1.4445568621158600e-01</leafValues></_>
        <_>
          <internalNodes>
            0 -1 523 4.3411579099483788e-04</internalNodes>
          <leafValues>
            -1.1828065663576126e-01 1.6647824645042419e-01</leafValues></_>
        <_>
          <internalNodes>
            0 -1 599 -3.8462579250335693e-03</internalNodes>
          <leafValues>
            -6.0371071100234985e-01 3.5234831273555756e-02</leafValues></_>
        <_>
          <internalNodes>
            0 -1 50 2.8635885100811720e-03</internalNodes>
          <leafValues>
            4.6585947275161743e-02 -4.2592591047286987e-01</leafValues></_>
        <_>
          <internalNodes>
            0 -1 303 -2.5611105374991894e-03</internalNodes>
          <leafValues>
            1.9934496283531189e-01 -1.0100208222866058e-01</leafValues></_>
        <_>
          <internalNodes>
            0 -1 445 -2.2067911922931671e-02</internalNodes>
          <leafValues>
            -4.1628319025039673e-01 4.7433901578187943e-02</leafValues></_>
        <_>
          <internalNodes>
            0 -1 338 -1.6652856022119522e-02</internalNodes>
          <leafValues>
            4.0291810035705566e-01 -4.8660229891538620e-02</leafValues></_>
        <_>
          <internalNodes>
            0 -1 222 -2.9352079145610332e-03</internalNodes>
          <leafValues>
            -3.9862346649169922e-01 5.0407499074935913e-02</leafValues></_>
        <_>
          <internalNodes>
            0 -1 555 -5.2121421322226524e-04</internalNodes>
          <leafValues>
            1.9491028785705566e-01 -9.9869199097156525e-02</leafValues></_>
        <_>
          <internalNodes>
            0 -1 305 3.3159732818603516e-02</internalNodes>
          <leafValues>
            3.0887719243764877e-02 -6.4071750640869141e-01</leafValues></_>
        <_>
          <internalNodes>
            0 -1 118 3.6125794053077698e-02</internalNodes>
          <leafValues>
            -9.0609207749366760e-02 2.1334262192249298e-01</leafValues></_>
        <_>
          <internalNodes>
            0 -1 202 -1.7350580543279648e-02</internalNodes>
          <leafValues>
            3.8365292549133301e-01 -5.3529117256402969e-02</leafValues></_>
        <_>
          <internalNodes>
            0 -1 283 -1.4461239334195852e-03</internalNodes>
          <leafValues>
            -2.4340045452117920e-01 9.3266949057579041e-02</leafValues></_>
        <_>
          <internalNodes>
            0 -1 459 3.0370592139661312e-03</internalNodes>
          <leafValues>
            -5.4667726159095764e-02 3.4540751576423645e-01</leafValues></_>
        <_>
          <internalNodes>
            0 -1 236 -7.9387286677956581e-03</internalNodes>
          <leafValues>
            2.5079533457756042e-01 -7.6046742498874664e-02</leafValues></_>
        <_>
          <internalNodes>
            0 -1 142 -6.5251061460003257e-04</internalNodes>
          <leafValues>
            1.8970203399658203e-01 -1.0563746094703674e-01</leafValues></_>
        <_>
          <internalNodes>
            0 -1 139 -3.4370846115052700e-03</internalNodes>
          <leafValues>
            -3.2367250323295593e-01 5.9103682637214661e-02</leafValues></_>
        <_>
          <internalNodes>
            0 -1 47 -3.6168247461318970e-01</internalNodes>
          <leafValues>
            5.7019895315170288e-01 -3.1428758054971695e-02</leafValues></_>
        <_>
          <internalNodes>
            0 -1 400 -2.4452805519104004e-02</internalNodes>
          <leafValues>
            -3.9049533009529114e-01 6.0149133205413818e-02</leafValues></_>
        <_>
          <internalNodes>
            0 -1 536 8.1149525940418243e-03</internalNodes>
          <leafValues>
            -9.6621476113796234e-02 2.0739893615245819e-01</leafValues></_>
        <_>
          <internalNodes>
            0 -1 438 -8.7700458243489265e-03</internalNodes>
          <leafValues>
            -3.8728308677673340e-01 5.6742805987596512e-02</leafValues></_>
        <_>
          <internalNodes>
            0 -1 499 -6.7239522468298674e-04</internalNodes>
          <leafValues>
            2.1866160631179810e-01 -9.1425292193889618e-02</leafValues></_>
        <_>
          <internalNodes>
            0 -1 502 1.1083297431468964e-03</internalNodes>
          <leafValues>
            -1.1058714985847473e-01 1.7380100488662720e-01</leafValues></_>
        <_>
          <internalNodes>
            0 -1 343 8.5877522826194763e-02</internalNodes>
          <leafValues>
            -6.4588345587253571e-02 3.0178570747375488e-01</leafValues></_>
        <_>
          <internalNodes>
            0 -1 509 1.4875782653689384e-03</internalNodes>
          <leafValues>
            9.5266498625278473e-02 -2.2335340082645416e-01</leafValues></_>
        <_>
          <internalNodes>
            0 -1 378 7.0425262674689293e-03</internalNodes>
          <leafValues>
            9.6824042499065399e-02 -2.0505364239215851e-01</leafValues></_>
        <_>
          <internalNodes>
            0 -1 387 5.1872213371098042e-03</internalNodes>
          <leafValues>
            4.0619339793920517e-02 -4.9000170826911926e-01</leafValues></_>
        <_>
          <internalNodes>
            0 -1 461 1.3393539935350418e-02</internalNodes>
          <leafValues>
            -5.9277694672346115e-02 3.5979625582695007e-01</leafValues></_>
        <_>
          <internalNodes>
            0 -1 52 4.7967173159122467e-03</internalNodes>
          <leafValues>
            -8.8021256029605865e-02 2.1623803675174713e-01</leafValues></_>
        <_>
          <internalNodes>
            0 -1 339 -5.6808218359947205e-02</internalNodes>
          <leafValues>
            6.8844491243362427e-01 -2.9950127005577087e-02</leafValues></_>
        <_>
          <internalNodes>
            0 -1 155 -2.6038067415356636e-02</internalNodes>
          <leafValues>
            5.1523548364639282e-01 -3.3944826573133469e-02</leafValues></_>
        <_>
          <internalNodes>
            0 -1 401 -9.9140242673456669e-04</internalNodes>
          <leafValues>
            2.5088420510292053e-01 -7.4506781995296478e-02</leafValues></_>
        <_>
          <internalNodes>
            0 -1 354 2.3349295370280743e-03</internalNodes>
          <leafValues>
            -8.9223220944404602e-02 2.3071341216564178e-01</leafValues></_>
        <_>
          <internalNodes>
            0 -1 108 -5.1332628354430199e-03</internalNodes>
          <leafValues>
            -8.7973284721374512e-01 2.1981267258524895e-02</leafValues></_>
        <_>
          <internalNodes>
            0 -1 593 1.8829502165317535e-02</internalNodes>
          <leafValues>
            3.1839914619922638e-02 -5.3531301021575928e-01</leafValues></_>
        <_>
          <internalNodes>
            0 -1 576 -1.0308342752978206e-03</internalNodes>
          <leafValues>
            1.9007858633995056e-01 -1.0854431241750717e-01</leafValues></_>
        <_>
          <internalNodes>
            0 -1 388 3.2737324945628643e-03</internalNodes>
          <leafValues>
            3.6087658256292343e-02 -5.8380049467086792e-01</leafValues></_>
        <_>
          <internalNodes>
            0 -1 529 5.6048110127449036e-04</internalNodes>
          <leafValues>
            -1.1952015757560730e-01 1.6877810657024384e-01</leafValues></_>
        <_>
          <internalNodes>
            0 -1 195 -1.6951771453022957e-02</internalNodes>
          <leafValues>
            5.9010154008865356e-01 -3.2608106732368469e-02</leafValues></_>
        <_>
          <internalNodes>
            0 -1 554 6.5067494288086891e-03</internalNodes>
          <leafValues>
            -6.0550350695848465e-02 3.0752900242805481e-01</leafValues></_>
        <_>
          <internalNodes>
            0 -1 449 -5.5139595642685890e-03</internalNodes>
          <leafValues>
            -5.2473223209381104e-01 3.9924770593643188e-02</leafValues></_>
        <_>
          <internalNodes>
            0 -1 375 -1.0147378779947758e-03</internalNodes>
          <leafValues>
            1.7934244871139526e-01 -1.2678256630897522e-01</leafValues></_></weakClassifiers></_>
    <!-- stage 5 -->
    <_>
      <maxWeakCount>75</maxWeakCount>
      <stageThreshold>-6.3720208406448364e-01</stageThreshold>
      <weakClassifiers>
        <_>
          <internalNodes>
            0 -1 363 9.3009537085890770e-03</internalNodes>
          <leafValues>
            2.0627802237868309e-02 5.2323234081268311e-01</leafValues></_>
        <_>
          <internalNodes>
            0 -1 404 7.9697687178850174e-03</internalNodes>
          <leafValues>
            -1.0127084702253342e-01 3.8315829634666443e-01</leafValues></_>
        <_>
          <internalNodes>
            0 -1 501 -3.6695627495646477e-03</internalNodes>
          <leafValues>
            2.0265911519527435e-01 -1.9423136115074158e-01</leafValues></_>
        <_>
          <internalNodes>
            0 -1 275 3.0424646101891994e-03</internalNodes>
          <leafValues>
            -1.6668333113193512e-01 2.0479281246662140e-01</leafValues></_>
        <_>
          <internalNodes>
            0 -1 419 -2.7580731548368931e-03</internalNodes>
          <leafValues>
            2.0448046922683716e-01 -1.4351637661457062e-01</leafValues></_>
        <_>
          <internalNodes>
            0 -1 495 7.3582874611020088e-03</internalNodes>
          <leafValues>
            -1.6296541690826416e-01 1.4802923798561096e-01</leafValues></_>
        <_>
          <internalNodes>
            0 -1 282 -1.4341594651341438e-03</internalNodes>
          <leafValues>
            -3.4011250734329224e-01 6.6490195691585541e-02</leafValues></_>
        <_>
          <internalNodes>
            0 -1 485 -9.5774233341217041e-04</internalNodes>
          <leafValues>
            1.7768725752830505e-01 -1.1755067855119705e-01</leafValues></_>
        <_>
          <internalNodes>
            0 -1 347 4.5328456908464432e-03</internalNodes>
          <leafValues>
            7.3466345667839050e-02 -2.5956687331199646e-01</leafValues></_>
        <_>
          <internalNodes>
            0 -1 198 -5.6881932541728020e-03</internalNodes>
          <leafValues>
            1.5420494973659515e-01 -1.2849389016628265e-01</leafValues></_>
        <_>
          <internalNodes>
            0 -1 368 -1.7833977937698364e-02</internalNodes>
          <leafValues>
            -3.3721938729286194e-01 6.3984967768192291e-02</leafValues></_>
        <_>
          <internalNodes>
            0 -1 531 -2.4610660038888454e-03</internalNodes>
          <leafValues>
            -4.0805158019065857e-01 5.1723442971706390e-02</leafValues></_>
        <_>
          <internalNodes>
            0 -1 64 -2.6978605892509222e-03</internalNodes>
          <leafValues>
            -4.2116314172744751e-01 4.9490552395582199e-02</leafValues></_>
        <_>
          <internalNodes>
            0 -1 115 -2.6988174766302109e-02</internalNodes>
          <leafValues>
            3.5803258419036865e-01 -5.8377493172883987e-02</leafValues></_>
        <_>
          <internalNodes>
            0 -1 455 -3.2047528657130897e-04</internalNodes>
          <leafValues>
            1.4737559854984283e-01 -1.3103735446929932e-01</leafValues></_>
        <_>
          <internalNodes>
            0 -1 103 4.7309938818216324e-02</internalNodes>
          <leafValues>
            -5.7388916611671448e-02 3.2927983999252319e-01</leafValues></_>
        <_>
          <internalNodes>
            0 -1 209 1.6508754342794418e-02</internalNodes>
          <leafValues>
            -4.1463784873485565e-02 5.2249795198440552e-01</leafValues></_>
        <_>
          <internalNodes>
            0 -1 28 -2.0263947546482086e-02</internalNodes>
          <leafValues>
            -6.5644079446792603e-01 2.9195087030529976e-02</leafValues></_>
        <_>
          <internalNodes>
            0 -1 587 4.1754089761525393e-04</internalNodes>
          <leafValues>
            1.0901245474815369e-01 -1.5939672291278839e-01</leafValues></_>
        <_>
          <internalNodes>
            0 -1 453 5.6126178242266178e-04</internalNodes>
          <leafValues>
            -8.3192668855190277e-02 2.1122795343399048e-01</leafValues></_>
        <_>
          <internalNodes>
            0 -1 369 -1.0689070448279381e-02</internalNodes>
          <leafValues>
            1.6129504144191742e-01 -1.1739117652177811e-01</leafValues></_>
        <_>
          <internalNodes>
            0 -1 321 4.0272686630487442e-02</internalNodes>
          <leafValues>
            5.6750684976577759e-02 -3.5507616400718689e-01</leafValues></_>
        <_>
          <internalNodes>
            0 -1 26 -1.2327293865382671e-02</internalNodes>
          <leafValues>
            -3.7734758853912354e-01 5.1522262394428253e-02</leafValues></_>
        <_>
          <internalNodes>
            0 -1 446 -1.4239858835935593e-02</internalNodes>
          <leafValues>
            -2.9446795582771301e-01 5.9696540236473083e-02</leafValues></_>
        <_>
          <internalNodes>
            0 -1 456 -5.3250631317496300e-03</internalNodes>
          <leafValues>
            -3.4949490427970886e-01 5.1566902548074722e-02</leafValues></_>
        <_>
          <internalNodes>
            0 -1 141 3.6448538303375244e-03</internalNodes>
          <leafValues>
            3.2360110431909561e-02 -5.7259738445281982e-01</leafValues></_>
        <_>
          <internalNodes>
            0 -1 150 1.7460916191339493e-02</internalNodes>
          <leafValues>
            -6.6163554787635803e-02 2.7031695842742920e-01</leafValues></_>
        <_>
          <internalNodes>
            0 -1 570 -8.1567355664446950e-04</internalNodes>
          <leafValues>
            -1.6609707474708557e-01 1.0133870691061020e-01</leafValues></_>
        <_>
          <internalNodes>
            0 -1 428 -2.8013233095407486e-03</internalNodes>
          <leafValues>
            -4.0496373176574707e-01 4.1931860148906708e-02</leafValues></_>
        <_>
          <internalNodes>
            0 -1 374 1.1494386708363891e-03</internalNodes>
          <leafValues>
            -1.1859654635190964e-01 1.3532881438732147e-01</leafValues></_>
        <_>
          <internalNodes>
            0 -1 352 6.8025072105228901e-03</internalNodes>
          <leafValues>
            3.3936455845832825e-02 -4.7374543547630310e-01</leafValues></_>
        <_>
          <internalNodes>
            0 -1 263 5.0213430076837540e-03</internalNodes>
          <leafValues>
            -1.0685300081968307e-01 1.6899558901786804e-01</leafValues></_>
        <_>
          <internalNodes>
            0 -1 538 -1.3936001341789961e-03</internalNodes>
          <leafValues>
            1.6992789506912231e-01 -1.0343591868877411e-01</leafValues></_>
        <_>
          <internalNodes>
            0 -1 567 3.3562444150447845e-03</internalNodes>
          <leafValues>
            -1.1546843498945236e-01 1.7088437080383301e-01</leafValues></_>
        <_>
          <internalNodes>
            0 -1 147 -1.4517463278025389e-03</internalNodes>
          <leafValues>
            1.7925256490707397e-01 -9.3588612973690033e-02</leafValues></_>
        <_>
          <internalNodes>
            0 -1 70 3.5194274038076401e-02</internalNodes>
          <leafValues>
            2.7468752115964890e-02 -6.4718157052993774e-01</leafValues></_>
        <_>
          <internalNodes>
            0 -1 63 1.6058802604675293e-01</internalNodes>
          <leafValues>
            -4.2029194533824921e-02 4.4771572947502136e-01</leafValues></_>
        <_>
          <internalNodes>
            0 -1 281 -2.3819110356271267e-03</internalNodes>
          <leafValues>
            -1.7556746304035187e-01 1.1377131193876266e-01</leafValues></_>
        <_>
          <internalNodes>
            0 -1 187 -3.0199775937944651e-04</internalNodes>
          <leafValues>
            1.3444605469703674e-01 -1.6233082115650177e-01</leafValues></_>
        <_>
          <internalNodes>
            0 -1 224 -2.5114804506301880e-02</internalNodes>
          <leafValues>
            6.8595653772354126e-01 -2.6494761928915977e-02</leafValues></_>
        <_>
          <internalNodes>
            0 -1 475 9.7235571593046188e-03</internalNodes>
          <leafValues>
            4.6896938234567642e-02 -4.7262376546859741e-01</leafValues></_>
        <_>
          <internalNodes>
            0 -1 478 4.4086542911827564e-03</internalNodes>
          <leafValues>
            -6.1407588422298431e-02 3.3690053224563599e-01</leafValues></_>
        <_>
          <internalNodes>
            0 -1 109 5.5836909450590611e-04</internalNodes>
          <leafValues>
            -8.7158650159835815e-02 2.0329646766185760e-01</leafValues></_>
        <_>
          <internalNodes>
            0 -1 519 -1.8215836957097054e-02</internalNodes>
          <leafValues>
            4.2542898654937744e-01 -4.1989732533693314e-02</leafValues></_>
        <_>
          <internalNodes>
            0 -1 540 4.4936542399227619e-03</internalNodes>
          <leafValues>
            4.2575728148221970e-02 -4.4599115848541260e-01</leafValues></_>
        <_>
          <internalNodes>
            0 -1 394 -5.9343776665627956e-03</internalNodes>
          <leafValues>
            -3.0368411540985107e-01 5.3326986730098724e-02</leafValues></_>
        <_>
          <internalNodes>
            0 -1 464 -1.0891808569431305e-01</internalNodes>
          <leafValues>
            5.5874794721603394e-01 -3.3473573625087738e-02</leafValues></_>
        <_>
          <internalNodes>
            0 -1 467 5.0895665772259235e-03</internalNodes>
          <leafValues>
            5.7499248534440994e-02 -3.1951665878295898e-01</leafValues></_>
        <_>
          <internalNodes>
            0 -1 16 1.5787594020366669e-02</internalNodes>
          <leafValues>
            -5.5542174726724625e-02 3.2530826330184937e-01</leafValues></_>
        <_>
          <internalNodes>
            0 -1 92 -8.5366686107590795e-05</internalNodes>
          <leafValues>
            -1.5675985813140869e-01 1.3121454417705536e-01</leafValues></_>
        <_>
          <internalNodes>
            0 -1 24 -1.7223168164491653e-02</internalNodes>
          <leafValues>
            5.4036444425582886e-01 -3.3951822668313980e-02</leafValues></_>
        <_>
          <internalNodes>
            0 -1 432 1.2509381398558617e-02</internalNodes>
          <leafValues>
            4.0302757173776627e-02 -5.4765635728836060e-01</leafValues></_>
        <_>
          <internalNodes>
            0 -1 35 1.0216766968369484e-02</internalNodes>
          <leafValues>
            2.6854285970330238e-02 -5.5433720350265503e-01</leafValues></_>
        <_>
          <internalNodes>
            0 -1 326 -2.6513285934925079e-02</internalNodes>
          <leafValues>
            -7.3032003641128540e-01 1.9135050475597382e-02</leafValues></_>
        <_>
          <internalNodes>
            0 -1 73 -6.7814602516591549e-04</internalNodes>
          <leafValues>
            -1.6163213551044464e-01 1.1230911314487457e-01</leafValues></_>
        <_>
          <internalNodes>
            0 -1 323 -1.4810700668022037e-03</internalNodes>
          <leafValues>
            1.9782502949237823e-01 -9.1704800724983215e-02</leafValues></_>
        <_>
          <internalNodes>
            0 -1 325 -2.1035368554294109e-03</internalNodes>
          <leafValues>
            1.8720635771751404e-01 -1.1423336714506149e-01</leafValues></_>
        <_>
          <internalNodes>
            0 -1 4 1.3880414888262749e-02</internalNodes>
          <leafValues>
            -3.9544753730297089e-02 4.8221197724342346e-01</leafValues></_>
        <_>
          <internalNodes>
            0 -1 160 4.2825035750865936e-02</internalNodes>
          <leafValues>
            -4.0832296013832092e-02 3.7601596117019653e-01</leafValues></_>
        <_>
          <internalNodes>
            0 -1 335 -1.6375616192817688e-02</internalNodes>
          <leafValues>
            -5.9014642238616943e-01 3.0629787594079971e-02</leafValues></_>
        <_>
          <internalNodes>
            0 -1 340 -2.4702271912246943e-04</internalNodes>
          <leafValues>
            -1.3510869443416595e-01 1.2666033208370209e-01</leafValues></_>
        <_>
          <internalNodes>
            0 -1 204 -2.7205746620893478e-02</internalNodes>
          <leafValues>
            2.7281153202056885e-01 -6.2057446688413620e-02</leafValues></_>
        <_>
          <internalNodes>
            0 -1 299 -3.8130834698677063e-02</internalNodes>
          <leafValues>
            -2.4230019748210907e-01 7.1890719234943390e-02</leafValues></_>
        <_>
          <internalNodes>
            0 -1 268 3.3388681709766388e-02</internalNodes>
          <leafValues>
            3.7725221365690231e-02 -4.4007948040962219e-01</leafValues></_>
        <_>
          <internalNodes>
            0 -1 571 1.4986675232648849e-02</internalNodes>
          <leafValues>
            -4.5292947441339493e-02 3.7519857287406921e-01</leafValues></_>
        <_>
          <internalNodes>
            0 -1 548 -3.6142186727374792e-03</internalNodes>
          <leafValues>
            -4.3638613820075989e-01 4.0399849414825439e-02</leafValues></_>
        <_>
          <internalNodes>
            0 -1 317 -3.7392836529761553e-03</internalNodes>
          <leafValues>
            -5.7193070650100708e-01 2.8386173769831657e-02</leafValues></_>
        <_>
          <internalNodes>
            0 -1 515 -6.6544662695378065e-04</internalNodes>
          <leafValues>
            -1.5887850522994995e-01 1.0290812700986862e-01</leafValues></_>
        <_>
          <internalNodes>
            0 -1 17 5.2360758185386658e-02</internalNodes>
          <leafValues>
            5.2011378109455109e-02 -3.0698585510253906e-01</leafValues></_>
        <_>
          <internalNodes>
            0 -1 222 4.4269515201449394e-03</internalNodes>
          <leafValues>
            2.8358455747365952e-02 -4.9959087371826172e-01</leafValues></_>
        <_>
          <internalNodes>
            0 -1 422 9.6269312780350447e-04</internalNodes>
          <leafValues>
            -1.5209837257862091e-01 1.0455656051635742e-01</leafValues></_>
        <_>
          <internalNodes>
            0 -1 376 7.7866455540060997e-03</internalNodes>
          <leafValues>
            5.0181783735752106e-02 -3.9336073398590088e-01</leafValues></_>
        <_>
          <internalNodes>
            0 -1 80 -8.0038905143737793e-03</internalNodes>
          <leafValues>
            2.7738973498344421e-01 -5.9881638735532761e-02</leafValues></_>
        <_>
          <internalNodes>
            0 -1 212 7.8156050294637680e-03</internalNodes>
          <leafValues>
            2.7395270764827728e-02 -6.4105105400085449e-01</leafValues></_>
        <_>
          <internalNodes>
            0 -1 76 -1.5453782677650452e-01</internalNodes>
          <leafValues>
            6.0834860801696777e-01 -3.2606635242700577e-02</leafValues></_></weakClassifiers></_>
    <!-- stage 6 -->
    <_>
      <maxWeakCount>86</maxWeakCount>
      <stageThreshold>-6.7182284593582153e-01</stageThreshold>
      <weakClassifiers>
        <_>
          <internalNodes>
            0 -1 406 -4.2106525506824255e-04</internalNodes>
          <leafValues>
            4.7591069340705872e-01 -1.1135857552289963e-02</leafValues></_>
        <_>
          <internalNodes>
            0 -1 413 5.1319389604032040e-03</internalNodes>
          <leafValues>
            -1.0678926110267639e-01 3.5204589366912842e-01</leafValues></_>
        <_>
          <internalNodes>
            0 -1 66 1.4154249802231789e-02</internalNodes>
          <leafValues>
            -8.5259623825550079e-02 4.4256559014320374e-01</leafValues></_>
        <_>
          <internalNodes>
            0 -1 401 1.3726335018873215e-03</internalNodes>
          <leafValues>
            -1.4303179085254669e-01 2.3748891055583954e-01</leafValues></_>
        <_>
          <internalNodes>
            0 -1 421 1.2840429320931435e-02</internalNodes>
          <leafValues>
            -1.3808831572532654e-01 1.8141514062881470e-01</leafValues></_>
        <_>
          <internalNodes>
            0 -1 402 8.3068723324686289e-04</internalNodes>
          <leafValues>
            -1.2052989751100540e-01 1.8952755630016327e-01</leafValues></_>
        <_>
          <internalNodes>
            0 -1 414 1.8704945687204599e-03</internalNodes>
          <leafValues>
            -7.1765370666980743e-02 2.8786069154739380e-01</leafValues></_>
        <_>
          <internalNodes>
            0 -1 134 3.6671068519353867e-02</internalNodes>
          <leafValues>
            -5.5814869701862335e-02 3.0767402052879333e-01</leafValues></_>
        <_>
          <internalNodes>
            0 -1 207 -6.0084386495873332e-04</internalNodes>
          <leafValues>
            1.9530265033245087e-01 -1.2664484977722168e-01</leafValues></_>
        <_>
          <internalNodes>
            0 -1 288 -3.4529191907495260e-03</internalNodes>
          <leafValues>
            -5.2894163131713867e-01 3.9932463318109512e-02</leafValues></_>
        <_>
          <internalNodes>
            0 -1 517 -6.0343777295202017e-04</internalNodes>
          <leafValues>
            -2.2685754299163818e-01 8.2692936062812805e-02</leafValues></_>
        <_>
          <internalNodes>
            0 -1 447 -1.0921044304268435e-04</internalNodes>
          <leafValues>
            1.3868317008018494e-01 -1.3780809938907623e-01</leafValues></_>
        <_>
          <internalNodes>
            0 -1 229 2.3990252986550331e-02</internalNodes>
          <leafValues>
            -2.8333464637398720e-02 6.4600872993469238e-01</leafValues></_>
        <_>
          <internalNodes>
            0 -1 520 -7.6368898153305054e-03</internalNodes>
          <leafValues>
            -1.8416973948478699e-01 9.8652318120002747e-02</leafValues></_>
        <_>
          <internalNodes>
            0 -1 279 8.2465336890891194e-04</internalNodes>
          <leafValues>
            -1.1742569506168365e-01 1.5252970159053802e-01</leafValues></_>
        <_>
          <internalNodes>
            0 -1 470 2.2633805871009827e-02</internalNodes>
          <leafValues>
            -1.3431939482688904e-01 1.3034045696258545e-01</leafValues></_>
        <_>
          <internalNodes>
            0 -1 109 3.2508303411304951e-03</internalNodes>
          <leafValues>
            3.0307041481137276e-02 -5.3282058238983154e-01</leafValues></_>
        <_>
          <internalNodes>
            0 -1 545 -4.9776202067732811e-03</internalNodes>
          <leafValues>
            -3.7629842758178711e-01 4.6760100871324539e-02</leafValues></_>
        <_>
          <internalNodes>
            0 -1 145 1.8610610859468579e-03</internalNodes>
          <leafValues>
            -8.5007108747959137e-02 2.0288616418838501e-01</leafValues></_>
        <_>
          <internalNodes>
            0 -1 386 -3.2586329616606236e-03</internalNodes>
          <leafValues>
            -5.4036849737167358e-01 3.5101640969514847e-02</leafValues></_>
        <_>
          <internalNodes>
            0 -1 46 -5.5760744959115982e-02</internalNodes>
          <leafValues>
            2.4480287730693817e-01 -7.0241026580333710e-02</leafValues></_>
        <_>
          <internalNodes>
            0 -1 395 -2.8374707326292992e-03</internalNodes>
          <leafValues>
            -1.8027006089687347e-01 9.7988694906234741e-02</leafValues></_>
        <_>
          <internalNodes>
            0 -1 128 1.2004291638731956e-02</internalNodes>
          <leafValues>
            4.0642403066158295e-02 -4.5200395584106445e-01</leafValues></_>
        <_>
          <internalNodes>
            0 -1 211 -7.5756479054689407e-04</internalNodes>
          <leafValues>
            1.8709540367126465e-01 -1.0307683795690536e-01</leafValues></_>
        <_>
          <internalNodes>
            0 -1 542 1.2747636064887047e-03</internalNodes>
          <leafValues>
            -6.9751277565956116e-02 2.6257303357124329e-01</leafValues></_>
        <_>
          <internalNodes>
            0 -1 230 2.7422651648521423e-01</internalNodes>
          <leafValues>
            -2.6900885626673698e-02 6.3805383443832397e-01</leafValues></_>
        <_>
          <internalNodes>
            0 -1 39 -1.5105707570910454e-02</internalNodes>
          <leafValues>
            -3.9898428320884705e-01 4.6029690653085709e-02</leafValues></_>
        <_>
          <internalNodes>
            0 -1 152 1.5322102699428797e-03</internalNodes>
          <leafValues>
            -6.7941479384899139e-02 2.5082293152809143e-01</leafValues></_>
        <_>
          <internalNodes>
            0 -1 415 -1.1164229363203049e-03</internalNodes>
          <leafValues>
            1.5194693207740784e-01 -1.1414615809917450e-01</leafValues></_>
        <_>
          <internalNodes>
            0 -1 7 -1.6346359625458717e-02</internalNodes>
          <leafValues>
            1.7273062467575073e-01 -9.4583183526992798e-02</leafValues></_>
        <_>
          <internalNodes>
            0 -1 165 5.1291659474372864e-03</internalNodes>
          <leafValues>
            5.1358267664909363e-02 -3.0524966120719910e-01</leafValues></_>
        <_>
          <internalNodes>
            0 -1 206 -2.0275734364986420e-02</internalNodes>
          <leafValues>
            2.3666277527809143e-01 -6.8589977920055389e-02</leafValues></_>
        <_>
          <internalNodes>
            0 -1 138 7.5771454721689224e-03</internalNodes>
          <leafValues>
            3.4356229007244110e-02 -5.3061336278915405e-01</leafValues></_>
        <_>
          <internalNodes>
            0 -1 193 -7.3033673688769341e-03</internalNodes>
          <leafValues>
            2.9772976040840149e-01 -6.7936189472675323e-02</leafValues></_>
        <_>
          <internalNodes>
            0 -1 122 2.6156664825975895e-03</internalNodes>
          <leafValues>
            -8.4268294274806976e-02 2.4024389684200287e-01</leafValues></_>
        <_>
          <internalNodes>
            0 -1 261 -1.6146556008607149e-03</internalNodes>
          <leafValues>
            -2.1845845878124237e-01 7.7176935970783234e-02</leafValues></_>
        <_>
          <internalNodes>
            0 -1 558 -6.4089233055710793e-03</internalNodes>
          <leafValues>
            6.1060976982116699e-01 -2.5686258450150490e-02</leafValues></_>
        <_>
          <internalNodes>
            0 -1 476 -3.7934547290205956e-03</internalNodes>
          <leafValues>
            2.5229465961456299e-01 -5.9915155172348022e-02</leafValues></_>
        <_>
          <internalNodes>
            0 -1 86 2.9495274648070335e-03</internalNodes>
          <leafValues>
            3.9860364049673080e-02 -4.4380214810371399e-01</leafValues></_>
        <_>
          <internalNodes>
            0 -1 585 -3.3448084723204374e-03</internalNodes>
          <leafValues>
            2.5439628958702087e-01 -6.3401654362678528e-02</leafValues></_>
        <_>
          <internalNodes>
            0 -1 589 2.5082670617848635e-04</internalNodes>
          <leafValues>
            9.7792670130729675e-02 -1.6665288805961609e-01</leafValues></_>
        <_>
          <internalNodes>
            0 -1 396 -2.5458989664912224e-02</internalNodes>
          <leafValues>
            -2.0572303235530853e-01 8.2542493939399719e-02</leafValues></_>
        <_>
          <internalNodes>
            0 -1 194 -1.5137556940317154e-02</internalNodes>
          <leafValues>
            -7.2949624061584473e-01 1.9428582862019539e-02</leafValues></_>
        <_>
          <internalNodes>
            0 -1 577 -5.6468378752470016e-03</internalNodes>
          <leafValues>
            -5.1600909233093262e-01 2.7824459597468376e-02</leafValues></_>
        <_>
          <internalNodes>
            0 -1 332 -8.4887421689927578e-04</internalNodes>
          <leafValues>
            1.6446980834007263e-01 -9.4252474606037140e-02</leafValues></_>
        <_>
          <internalNodes>
            0 -1 334 1.7659553559496999e-03</internalNodes>
          <leafValues>
            -7.0759795606136322e-02 2.2818170487880707e-01</leafValues></_>
        <_>
          <internalNodes>
            0 -1 377 -1.5105793718248606e-03</internalNodes>
          <leafValues>
            1.3167613744735718e-01 -1.5121927857398987e-01</leafValues></_>
        <_>
          <internalNodes>
            0 -1 490 2.8359098359942436e-03</internalNodes>
          <leafValues>
            4.1720680892467499e-02 -3.8497263193130493e-01</leafValues></_>
        <_>
          <internalNodes>
            0 -1 158 6.8903751671314240e-03</internalNodes>
          <leafValues>
            -7.9339489340782166e-02 2.0674234628677368e-01</leafValues></_>
        <_>
          <internalNodes>
            0 -1 233 -5.4900698363780975e-02</internalNodes>
          <leafValues>
            3.7689113616943359e-01 -3.9349939674139023e-02</leafValues></_>
        <_>
          <internalNodes>
            0 -1 297 -1.2014891020953655e-02</internalNodes>
          <leafValues>
            -2.3495264351367950e-01 7.6159834861755371e-02</leafValues></_>
        <_>
          <internalNodes>
            0 -1 8 -1.8272217363119125e-02</internalNodes>
          <leafValues>
            3.1149438023567200e-01 -5.0531696528196335e-02</leafValues></_>
        <_>
          <internalNodes>
            0 -1 126 -5.4542720317840576e-03</internalNodes>
          <leafValues>
            -4.6130272746086121e-01 4.0671147406101227e-02</leafValues></_>
        <_>
          <internalNodes>
            0 -1 51 1.7706512007862329e-03</internalNodes>
          <leafValues>
            -1.2474825233221054e-01 1.4526206254959106e-01</leafValues></_>
        <_>
          <internalNodes>
            0 -1 197 -3.8811516016721725e-02</internalNodes>
          <leafValues>
            5.0701218843460083e-01 -3.3710788935422897e-02</leafValues></_>
        <_>
          <internalNodes>
            0 -1 429 2.2338060662150383e-02</internalNodes>
          <leafValues>
            6.2819242477416992e-02 -2.8143617510795593e-01</leafValues></_>
        <_>
          <internalNodes>
            0 -1 244 -1.4451541937887669e-02</internalNodes>
          <leafValues>
            -3.3897036314010620e-01 4.3909490108489990e-02</leafValues></_>
        <_>
          <internalNodes>
            0 -1 342 8.7475717067718506e-02</internalNodes>
          <leafValues>
            -4.8206266015768051e-02 3.6035826802253723e-01</leafValues></_>
        <_>
          <internalNodes>
            0 -1 498 -1.4839795418083668e-02</internalNodes>
          <leafValues>
            2.9787573218345642e-01 -5.6159771978855133e-02</leafValues></_>
        <_>
          <internalNodes>
            0 -1 161 1.6343664377927780e-02</internalNodes>
          <leafValues>
            -1.0620474815368652e-01 1.5182933211326599e-01</leafValues></_>
        <_>
          <internalNodes>
            0 -1 168 4.4495455920696259e-02</internalNodes>
          <leafValues>
            -3.1556684523820877e-02 5.1102644205093384e-01</leafValues></_>
        <_>
          <internalNodes>
            0 -1 227 -6.0302589554339647e-04</internalNodes>
          <leafValues>
            1.2698073685169220e-01 -1.3075944781303406e-01</leafValues></_>
        <_>
          <internalNodes>
            0 -1 256 2.7756076306104660e-03</internalNodes>
          <leafValues>
            3.8265682756900787e-02 -4.6819946169853210e-01</leafValues></_>
        <_>
          <internalNodes>
            0 -1 107 -1.3364919461309910e-02</internalNodes>
          <leafValues>
            2.6500898599624634e-01 -5.8547411113977432e-02</leafValues></_>
        <_>
          <internalNodes>
            0 -1 33 2.1947545930743217e-02</internalNodes>
          <leafValues>
            2.5030292570590973e-02 -6.2420010566711426e-01</leafValues></_>
        <_>
          <internalNodes>
            0 -1 566 1.3024463318288326e-02</internalNodes>
          <leafValues>
            5.2623257040977478e-02 -2.8654888272285461e-01</leafValues></_>
        <_>
          <internalNodes>
            0 -1 41 -9.7400927916169167e-04</internalNodes>
          <leafValues>
            1.3604831695556641e-01 -1.1877696216106415e-01</leafValues></_>
        <_>
          <internalNodes>
            0 -1 82 -4.3103424832224846e-03</internalNodes>
          <leafValues>
            2.2967572510242462e-01 -8.3534866571426392e-02</leafValues></_>
        <_>
          <internalNodes>
            0 -1 217 7.0538343861699104e-03</internalNodes>
          <leafValues>
            2.2860832512378693e-02 -6.8401068449020386e-01</leafValues></_>
        <_>
          <internalNodes>
            0 -1 505 -9.9394423887133598e-04</internalNodes>
          <leafValues>
            1.7791587114334106e-01 -9.1983608901500702e-02</leafValues></_>
        <_>
          <internalNodes>
            0 -1 371 1.6712568700313568e-02</internalNodes>
          <leafValues>
            4.4003833085298538e-02 -3.9689481258392334e-01</leafValues></_>
        <_>
          <internalNodes>
            0 -1 2 -6.9413054734468460e-03</internalNodes>
          <leafValues>
            -2.5471135973930359e-01 5.9505064040422440e-02</leafValues></_>
        <_>
          <internalNodes>
            0 -1 15 -6.7062047310173512e-04</internalNodes>
          <leafValues>
            1.3767455518245697e-01 -1.1839044839143753e-01</leafValues></_>
        <_>
          <internalNodes>
            0 -1 71 -5.6832078844308853e-03</internalNodes>
          <leafValues>
            2.2891640663146973e-01 -7.3313213884830475e-02</leafValues></_>
        <_>
          <internalNodes>
            0 -1 595 5.5874809622764587e-03</internalNodes>
          <leafValues>
            1.9757997244596481e-02 -8.1963503360748291e-01</leafValues></_>
        <_>
          <internalNodes>
            0 -1 513 -7.4979761848226190e-04</internalNodes>
          <leafValues>
            1.2100351601839066e-01 -1.4433813095092773e-01</leafValues></_>
        <_>
          <internalNodes>
            0 -1 311 -1.0667037218809128e-02</internalNodes>
          <leafValues>
            6.5785485506057739e-01 -2.5635059922933578e-02</leafValues></_>
        <_>
          <internalNodes>
            0 -1 1 3.5238093137741089e-01</internalNodes>
          <leafValues>
            -3.2939724624156952e-02 4.3556621670722961e-01</leafValues></_>
        <_>
          <internalNodes>
            0 -1 579 1.0914974845945835e-03</internalNodes>
          <leafValues>
            -8.5244253277778625e-02 1.9110505282878876e-01</leafValues></_>
        <_>
          <internalNodes>
            0 -1 69 -2.2426646202802658e-02</internalNodes>
          <leafValues>
            -5.8977359533309937e-01 2.9487669467926025e-02</leafValues></_>
        <_>
          <internalNodes>
            0 -1 590 -8.6557946633547544e-04</internalNodes>
          <leafValues>
            -1.4768254756927490e-01 1.1146895587444305e-01</leafValues></_>
        <_>
          <internalNodes>
            0 -1 277 -1.2226407416164875e-03</internalNodes>
          <leafValues>
            1.9106441736221313e-01 -8.3561167120933533e-02</leafValues></_>
        <_>
          <internalNodes>
            0 -1 454 -6.6472720354795456e-03</internalNodes>
          <leafValues>
            -6.1725908517837524e-01 2.4568149819970131e-02</leafValues></_>
        <_>
          <internalNodes>
            0 -1 353 -5.9866020455956459e-03</internalNodes>
          <leafValues>
            -2.4770036339759827e-01 6.0440570116043091e-02</leafValues></_>
        <_>
          <internalNodes>
            0 -1 333 2.6222267188131809e-03</internalNodes>
          <leafValues>
            -5.2410650998353958e-02 3.2369101047515869e-01</leafValues></_>
        <_>
          <internalNodes>
            0 -1 293 -3.3126678317785263e-03</internalNodes>
          <leafValues>
            -5.4445797204971313e-01 3.3261839300394058e-02</leafValues></_></weakClassifiers></_>
    <!-- stage 7 -->
    <_>
      <maxWeakCount>89</maxWeakCount>
      <stageThreshold>-6.8873566389083862e-01</stageThreshold>
      <weakClassifiers>
        <_>
          <internalNodes>
            0 -1 406 -2.3559925612062216e-03</internalNodes>
          <leafValues>
            5.5163729190826416e-01 1.0149041563272476e-01</leafValues></_>
        <_>
          <internalNodes>
            0 -1 366 3.6653226707130671e-03</internalNodes>
          <leafValues>
            -1.5599830448627472e-01 2.3698928952217102e-01</leafValues></_>
        <_>
          <internalNodes>
            0 -1 56 3.5360422916710377e-03</internalNodes>
          <leafValues>
            -9.6005350351333618e-02 3.2822778820991516e-01</leafValues></_>
        <_>
          <internalNodes>
            0 -1 249 -7.2365794330835342e-03</internalNodes>
          <leafValues>
            2.6263272762298584e-01 -1.5143848955631256e-01</leafValues></_>
        <_>
          <internalNodes>
            0 -1 481 4.9621118232607841e-03</internalNodes>
          <leafValues>
            -9.9943429231643677e-02 2.5099590420722961e-01</leafValues></_>
        <_>
          <internalNodes>
            0 -1 397 -1.5582336345687509e-03</internalNodes>
          <leafValues>
            -2.0845243334770203e-01 1.2146338075399399e-01</leafValues></_>
        <_>
          <internalNodes>
            0 -1 489 -3.2549295574426651e-03</internalNodes>
          <leafValues>
            1.5594622492790222e-01 -1.4571441709995270e-01</leafValues></_>
        <_>
          <internalNodes>
            0 -1 493 9.7466278821229935e-03</internalNodes>
          <leafValues>
            -7.8987821936607361e-02 2.9343840479850769e-01</leafValues></_>
        <_>
          <internalNodes>
            0 -1 196 -1.6357386484742165e-02</internalNodes>
          <leafValues>
            3.7472161650657654e-01 -5.0335612148046494e-02</leafValues></_>
        <_>
          <internalNodes>
            0 -1 106 -1.6698865219950676e-03</internalNodes>
          <leafValues>
            2.1231965720653534e-01 -9.5537789165973663e-02</leafValues></_>
        <_>
          <internalNodes>
            0 -1 36 -5.8367855846881866e-02</internalNodes>
          <leafValues>
            -2.9301792383193970e-01 6.6905207931995392e-02</leafValues></_>
        <_>
          <internalNodes>
            0 -1 72 3.4726627171039581e-02</internalNodes>
          <leafValues>
            4.4761594384908676e-02 -3.6539921164512634e-01</leafValues></_>
        <_>
          <internalNodes>
            0 -1 215 -2.9047201387584209e-03</internalNodes>
          <leafValues>
            2.4836216866970062e-01 -7.1968778967857361e-02</leafValues></_>
        <_>
          <internalNodes>
            0 -1 151 3.4679609816521406e-03</internalNodes>
          <leafValues>
            -6.2989369034767151e-02 3.0507153272628784e-01</leafValues></_>
        <_>
          <internalNodes>
            0 -1 55 -2.2797724232077599e-03</internalNodes>
          <leafValues>
            -2.8932091593742371e-01 6.0468904674053192e-02</leafValues></_>
        <_>
          <internalNodes>
            0 -1 269 -3.9167643990367651e-04</internalNodes>
          <leafValues>
            1.5782153606414795e-01 -1.0871767252683640e-01</leafValues></_>
        <_>
          <internalNodes>
            0 -1 290 2.2481400519609451e-03</internalNodes>
          <leafValues>
            1.2092952430248260e-01 -1.4637543261051178e-01</leafValues></_>
        <_>
          <internalNodes>
            0 -1 156 -4.0690816938877106e-02</internalNodes>
          <leafValues>
            -2.6189574599266052e-01 6.7945070564746857e-02</leafValues></_>
        <_>
          <internalNodes>
            0 -1 97 1.9510563462972641e-02</internalNodes>
          <leafValues>
            3.3293083310127258e-02 -5.2248489856719971e-01</leafValues></_>
        <_>
          <internalNodes>
            0 -1 182 -3.2802663743495941e-02</internalNodes>
          <leafValues>
            4.1768023371696472e-01 -4.1683588176965714e-02</leafValues></_>
        <_>
          <internalNodes>
            0 -1 59 5.1448955200612545e-03</internalNodes>
          <leafValues>
            5.1705244928598404e-02 -3.8915139436721802e-01</leafValues></_>
        <_>
          <internalNodes>
            0 -1 298 5.4775280877947807e-03</internalNodes>
          <leafValues>
            2.2318867966532707e-02 -7.4382901191711426e-01</leafValues></_>
        <_>
          <internalNodes>
            0 -1 186 1.1275063268840313e-02</internalNodes>
          <leafValues>
            -4.6632751822471619e-02 3.7863567471504211e-01</leafValues></_>
        <_>
          <internalNodes>
            0 -1 596 -4.5984736643731594e-03</internalNodes>
          <leafValues>
            -6.4294886589050293e-01 2.6303311809897423e-02</leafValues></_>
        <_>
          <internalNodes>
            0 -1 10 4.6669874340295792e-02</internalNodes>
          <leafValues>
            -3.4321732819080353e-02 4.9037370085716248e-01</leafValues></_>
        <_>
          <internalNodes>
            0 -1 551 2.0945869386196136e-02</internalNodes>
          <leafValues>
            -5.1971308887004852e-02 3.0507597327232361e-01</leafValues></_>
        <_>
          <internalNodes>
            0 -1 248 -1.5965159982442856e-02</internalNodes>
          <leafValues>
            -6.8295955657958984e-01 2.6168908923864365e-02</leafValues></_>
        <_>
          <internalNodes>
            0 -1 521 -1.0728052817285061e-02</internalNodes>
          <leafValues>
            1.9735254347324371e-01 -8.7921075522899628e-02</leafValues></_>
        <_>
          <internalNodes>
            0 -1 4 -2.6045918930321932e-03</internalNodes>
          <leafValues>
            2.0827646553516388e-01 -8.1268906593322754e-02</leafValues></_>
        <_>
          <internalNodes>
            0 -1 552 1.1055720970034599e-02</internalNodes>
          <leafValues>
            6.4494460821151733e-02 -2.6454138755798340e-01</leafValues></_>
        <_>
          <internalNodes>
            0 -1 99 4.0264433482661843e-04</internalNodes>
          <leafValues>
            -1.3471932709217072e-01 1.3541574776172638e-01</leafValues></_>
        <_>
          <internalNodes>
            0 -1 553 -5.7927221059799194e-03</internalNodes>
          <leafValues>
            2.2016985714435577e-01 -7.9953312873840332e-02</leafValues></_>
        <_>
          <internalNodes>
            0 -1 568 -1.8089942634105682e-02</internalNodes>
          <leafValues>
            2.3065300285816193e-01 -7.2223313152790070e-02</leafValues></_>
        <_>
          <internalNodes>
            0 -1 328 1.7446693032979965e-02</internalNodes>
          <leafValues>
            6.2514126300811768e-02 -2.6385003328323364e-01</leafValues></_>
        <_>
          <internalNodes>
            0 -1 190 -5.5367849767208099e-02</internalNodes>
          <leafValues>
            2.6274979114532471e-01 -5.9518747031688690e-02</leafValues></_>
        <_>
          <internalNodes>
            0 -1 468 1.9866038113832474e-02</internalNodes>
          <leafValues>
            3.0979596078395844e-02 -5.5606329441070557e-01</leafValues></_>
        <_>
          <internalNodes>
            0 -1 195 -5.1555149257183075e-03</internalNodes>
          <leafValues>
            1.9751214981079102e-01 -8.0265581607818604e-02</leafValues></_>
        <_>
          <internalNodes>
            0 -1 49 4.2972356081008911e-02</internalNodes>
          <leafValues>
            2.3582985624670982e-02 -7.4942731857299805e-01</leafValues></_>
        <_>
          <internalNodes>
            0 -1 163 3.3545218408107758e-02</internalNodes>
          <leafValues>
            1.6454430297017097e-02 -8.2566636800765991e-01</leafValues></_>
        <_>
          <internalNodes>
            0 -1 199 8.9518859982490540e-02</internalNodes>
          <leafValues>
            -2.6531361043453217e-02 6.2836128473281860e-01</leafValues></_>
        <_>
          <internalNodes>
            0 -1 164 2.1480018040165305e-04</internalNodes>
          <leafValues>
            -1.2935079634189606e-01 1.2402926385402679e-01</leafValues></_>
        <_>
          <internalNodes>
            0 -1 175 -1.9814139232039452e-02</internalNodes>
          <leafValues>
            2.4989165365695953e-01 -7.4035875499248505e-02</leafValues></_>
        <_>
          <internalNodes>
            0 -1 310 -6.4547578804194927e-03</internalNodes>
          <leafValues>
            -4.4427916407585144e-01 4.0323391556739807e-02</leafValues></_>
        <_>
          <internalNodes>
            0 -1 40 1.4881672337651253e-02</internalNodes>
          <leafValues>
            -2.4074180051684380e-02 8.1767344474792480e-01</leafValues></_>
        <_>
          <internalNodes>
            0 -1 584 1.1376149952411652e-02</internalNodes>
          <leafValues>
            5.9127263724803925e-02 -2.8989627957344055e-01</leafValues></_>
        <_>
          <internalNodes>
            0 -1 574 1.4000458177179098e-03</internalNodes>
          <leafValues>
            -1.1390733718872070e-01 1.4580348134040833e-01</leafValues></_>
        <_>
          <internalNodes>
            0 -1 541 -3.0364883132278919e-03</internalNodes>
          <leafValues>
            2.2557924687862396e-01 -6.7949406802654266e-02</leafValues></_>
        <_>
          <internalNodes>
            0 -1 399 -2.7531022205948830e-02</internalNodes>
          <leafValues>
            -6.5689533948898315e-01 2.6781750842928886e-02</leafValues></_>
        <_>
          <internalNodes>
            0 -1 543 3.5721014719456434e-03</internalNodes>
          <leafValues>
            2.9574757441878319e-02 -5.0649350881576538e-01</leafValues></_>
        <_>
          <internalNodes>
            0 -1 312 1.7709732055664063e-03</internalNodes>
          <leafValues>
            5.4788127541542053e-02 -2.9017442464828491e-01</leafValues></_>
        <_>
          <internalNodes>
            0 -1 356 -1.2987114023417234e-03</internalNodes>
          <leafValues>
            1.8620303273200989e-01 -9.3873895704746246e-02</leafValues></_>
        <_>
          <internalNodes>
            0 -1 258 2.2503407672047615e-03</internalNodes>
          <leafValues>
            8.6811363697052002e-02 -1.8522770702838898e-01</leafValues></_>
        <_>
          <internalNodes>
            0 -1 120 -8.1856740871444345e-04</internalNodes>
          <leafValues>
            1.8946713209152222e-01 -8.7283320724964142e-02</leafValues></_>
        <_>
          <internalNodes>
            0 -1 581 4.4466452673077583e-03</internalNodes>
          <leafValues>
            -1.2021318078041077e-01 1.5561598539352417e-01</leafValues></_>
        <_>
          <internalNodes>
            0 -1 324 -1.1843632906675339e-02</internalNodes>
          <leafValues>
            -6.2848174571990967e-01 2.8023185208439827e-02</leafValues></_>
        <_>
          <internalNodes>
            0 -1 337 1.7878660000860691e-03</internalNodes>
          <leafValues>
            -8.7560147047042847e-02 1.9533830881118774e-01</leafValues></_>
        <_>
          <internalNodes>
            0 -1 506 9.9579524248838425e-04</internalNodes>
          <leafValues>
            -8.2698449492454529e-02 2.0691455900669098e-01</leafValues></_>
        <_>
          <internalNodes>
            0 -1 307 2.5464858859777451e-02</internalNodes>
          <leafValues>
            -1.0104025155305862e-01 1.5273290872573853e-01</leafValues></_>
        <_>
          <internalNodes>
            0 -1 149 1.0798454750329256e-03</internalNodes>
          <leafValues>
            -1.0880628973245621e-01 1.5239289402961731e-01</leafValues></_>
        <_>
          <internalNodes>
            0 -1 549 -5.9205456636846066e-03</internalNodes>
          <leafValues>
            -7.4044668674468994e-01 2.2267021238803864e-02</leafValues></_>
        <_>
          <internalNodes>
            0 -1 560 -7.2799762710928917e-03</internalNodes>
          <leafValues>
            -4.0680876374244690e-01 3.6475952714681625e-02</leafValues></_>
        <_>
          <internalNodes>
            0 -1 302 -1.3563311658799648e-03</internalNodes>
          <leafValues>
            2.1056537330150604e-01 -7.8079722821712494e-02</leafValues></_>
        <_>
          <internalNodes>
            0 -1 316 5.7165734469890594e-03</internalNodes>
          <leafValues>
            3.5410162061452866e-02 -4.5742440223693848e-01</leafValues></_>
        <_>
          <internalNodes>
            0 -1 449 -7.6067028567194939e-04</internalNodes>
          <leafValues>
            1.4836010336875916e-01 -1.0092868655920029e-01</leafValues></_>
        <_>
          <internalNodes>
            0 -1 278 -4.0813051164150238e-03</internalNodes>
          <leafValues>
            -2.1992461383342743e-01 7.0181481540203094e-02</leafValues></_>
        <_>
