<?xml version="1.0"?>
<opencv_storage>
<cascade>
  <stageType>BOOST</stageType>
  <featureType>HAAR</featureType>
  <height>20</height>
  <width>20</width>
  <stageParams>
    <boostType>GAB</boostType>
    <minHitRate>9.9500000476837158e-01</minHitRate>
    <maxFalseAlarm>5.0000000000000000e-01</maxFalseAlarm>
    <weightTrimRate>9.4999999999999996e-01</weightTrimRate>
    <maxDepth>1</maxDepth>
    <maxWeakCount>100</maxWeakCount></stageParams>
  <featureParams>
    <maxCatCount>0</maxCatCount>
    <featSize>1</featSize>
    <mode>BASIC</mode></featureParams>
  <stageNum>7</stageNum>
  <stages>
    <!-- stage 0 -->
    <_>
      <maxWeakCount>2</maxWeakCount>
      <stageThreshold>-7.5363248586654663e-02</stageThreshold>
      <weakClassifiers>
        <_>
          <internalNodes>
            0 -1 17 -1.8778007477521896e-02</internalNodes>
          <leafValues>
            8.5561197996139526e-01 -8.6698913574218750e-01</leafValues></_>
        <_>
          <internalNodes>
            0 -1 14 5.7604894973337650e-03</internalNodes>
          <leafValues>
            -7.5121665000915527e-01 7.9162585735321045e-01</leafValues></_></weakClassifiers></_>
    <!-- stage 1 -->
    <_>
      <maxWeakCount>4</maxWeakCount>
      <stageThreshold>-4.4083681702613831e-01</stageThreshold>
      <weakClassifiers>
        <_>
          <internalNodes>
            0 -1 10 -6.7329563200473785e-02</internalNodes>
          <leafValues>
            7.5000000000000000e-01 -8.2967031002044678e-01</leafValues></_>
        <_>
          <internalNodes>
            0 -1 9 -3.0367774888873100e-03</internalNodes>
          <leafValues>
            7.1846204996109009e-01 -7.3918259143829346e-01</leafValues></_>
        <_>
          <internalNodes>
            0 -1 26 1.8748201429843903e-02</internalNodes>
          <leafValues>
            -7.7405357360839844e-01 5.7227861881256104e-01</leafValues></_>
        <_>
          <internalNodes>
            0 -1 2 1.7820790410041809e-02</internalNodes>
          <leafValues>
            -7.8812760114669800e-01 5.5573755502700806e-01</leafValues></_></weakClassifiers></_>
    <!-- stage 2 -->
    <_>
      <maxWeakCount>4</maxWeakCount>
      <stageThreshold>-4.8359498381614685e-01</stageThreshold>
      <weakClassifiers>
        <_>
          <internalNodes>
            0 -1 20 -5.1883021369576454e-03</internalNodes>
          <leafValues>
            6.9737517833709717e-01 -8.4474885463714600e-01</leafValues></_>
        <_>
          <internalNodes>
            0 -1 7 -3.3556818962097168e-03</internalNodes>
          <leafValues>
            5.6945455074310303e-01 -6.6352057456970215e-01</leafValues></_>
        <_>
          <internalNodes>
            0 -1 15 1.2176468968391418e-02</internalNodes>
          <leafValues>
            -5.8862042427062988e-01 6.1975032091140747e-01</leafValues></_>
        <_>
          <internalNodes>
            0 -1 19 1.4372742734849453e-02</internalNodes>
          <leafValues>
            -9.4899368286132813e-01 4.0492415428161621e-01</leafValues></_></weakClassifiers></_>
    <!-- stage 3 -->
    <_>
      <maxWeakCount>5</maxWeakCount>
      <stageThreshold>-7.5712436437606812e-01</stageThreshold>
      <weakClassifiers>
        <_>
          <internalNodes>
            0 -1 22 2.0346101373434067e-02</internalNodes>
          <leafValues>
            -8.9230769872665405e-01 6.0769230127334595e-01</leafValues></_>
        <_>
          <internalNodes>
            0 -1 13 -6.7352624610066414e-03</internalNodes>
          <leafValues>
            5.7092583179473877e-01 -5.5322384834289551e-01</leafValues></_>
        <_>
          <internalNodes>
            0 -1 0 2.5378884747624397e-02</internalNodes>
          <leafValues>
            -6.3971883058547974e-01 5.0805538892745972e-01</leafValues></_>
        <_>
          <internalNodes>
            0 -1 27 1.2494781985878944e-02</internalNodes>
          <leafValues>
            -5.1239913702011108e-01 6.4117884635925293e-01</leafValues></_>
        <_>
          <internalNodes>
            0 -1 12 -1.1675257701426744e-03</internalNodes>
          <leafValues>
            3.4052515029907227e-01 -9.3666869401931763e-01</leafValues></_></weakClassifiers></_>
    <!-- stage 4 -->
    <_>
      <maxWeakCount>4</maxWeakCount>
      <stageThreshold>-7.2172284126281738e-01</stageThreshold>
      <weakClassifiers>
        <_>
          <internalNodes>
            0 -1 18 -7.2962902486324310e-03</internalNodes>
          <leafValues>
            6.0076773166656494e-01 -8.7596899271011353e-01</leafValues></_>
        <_>
          <internalNodes>
            0 -1 6 -8.0532301217317581e-03</internalNodes>
          <leafValues>
            5.2345460653305054e-01 -6.4527159929275513e-01</leafValues></_>
        <_>
          <internalNodes>
            0 -1 4 8.7694358080625534e-03</internalNodes>
          <leafValues>
            -6.4628410339355469e-01 5.1344656944274902e-01</leafValues></_>
        <_>
          <internalNodes>
            0 -1 5 -5.0311149097979069e-03</internalNodes>
          <leafValues>
            2.7707561850547791e-01 -9.5669984817504883e-01</leafValues></_></weakClassifiers></_>
    <!-- stage 5 -->
    <_>
      <maxWeakCount>6</maxWeakCount>
      <stageThreshold>-7.1076458692550659e-01</stageThreshold>
      <weakClassifiers>
        <_>
          <internalNodes>
            0 -1 8 1.5099723823368549e-03</internalNodes>
          <leafValues>
            -5.2499997615814209e-01 6.2659573554992676e-01</leafValues></_>
        <_>
          <internalNodes>
            0 -1 1 2.1619666367769241e-02</internalNodes>
          <leafValues>
            -7.1459507942199707e-01 4.5352190732955933e-01</leafValues></_>
        <_>
          <internalNodes>
            0 -1 15 6.3720559701323509e-03</internalNodes>
          <leafValues>
            -7.0062625408172607e-01 3.8721415400505066e-01</leafValues></_>
        <_>
          <internalNodes>
            0 -1 21 4.2756990296766162e-04</internalNodes>
          <leafValues>
            2.4729301035404205e-01 -8.8326638936996460e-01</leafValues></_>
        <_>
          <internalNodes>
            0 -1 23 8.8143013417720795e-03</internalNodes>
          <leafValues>
            -7.8339833021163940e-01 2.6537248492240906e-01</leafValues></_>
        <_>
          <internalNodes>
            0 -1 3 2.2046163678169250e-02</internalNodes>
          <leafValues>
            -3.9208549261093140e-01 7.1339207887649536e-01</leafValues></_></weakClassifiers></_>
    <!-- stage 6 -->
    <_>
      <maxWeakCount>5</maxWeakCount>
      <stageThreshold>-4.0112128853797913e-01</stageThreshold>
      <weakClassifiers>
        <_>
          <internalNodes>
            0 -1 24 -6.7920214496552944e-04</internalNodes>
          <leafValues>
            -9.1604936122894287e-01 5.3348517417907715e-01</leafValues></_>
        <_>
          <internalNodes>
            0 -1 11 -1.2681239284574986e-02</internalNodes>
          <leafValues>
            5.3709179162979126e-01 -5.2811276912689209e-01</leafValues></_>
        <_>
          <internalNodes>
            0 -1 25 -4.5896261930465698e-02</internalNodes>
          <leafValues>
            5.7276278734207153e-01 -4.5773977041244507e-01</leafValues></_>
        <_>
          <internalNodes>
            0 -1 16 5.3843326866626740e-02</internalNodes>
          <leafValues>
            -3.2611513137817383e-01 8.8172948360443115e-01</leafValues></_>
        <_>
          <internalNodes>
            0 -1 28 2.4035945534706116e-03</internalNodes>
          <leafValues>
            -6.5314131975173950e-01 4.1835448145866394e-01</leafValues></_></weakClassifiers></_></stages>
  <features>
    <_>
      <rects>
        <_>
          1 1 18 1 -1.</_>
        <_>
          7 1 6 1 3.</_></rects>
      <tilted>0</tilted></_>
    <_>
      <rects>
        <_>
          1 5 9 10 -1.</_>
        <_>
          4 5 3 10 3.</_></rects>
      <tilted>0</tilted></_>
    <_>
      <rects>
        <_>
          2 1 18 1 -1.</_>
        <_>
          8 1 6 1 3.</_></rects>
      <tilted>0</tilted></_>
    <_>
      <rects>
        <_>
          4 18 12 1 -1.</_>
        <_>
          8 18 4 1 3.</_></rects>
      <tilted>0</tilted></_>
    <_>
      <rects>
        <_>
          5 0 8 2 -1.</_>
        <_>
          5 1 8 1 2.</_></rects>
      <tilted>0</tilted></_>
    <_>
      <rects>
        <_>
          5 8 8 3 -1.</_>
        <_>
          9 8 4 3 2.</_></rects>
      <tilted>0</tilted></_>
    <_>
      <rects>
        <_>
          5 9 3 2 -1.</_>
        <_>
          6 9 1 2 3.</_></rects>
      <tilted>0</tilted></_>
    <_>
      <rects>
        <_>
          5 9 2 3 -1.</_>
        <_>
          6 9 1 3 2.</_></rects>
      <tilted>0</tilted></_>
    <_>
      <rects>
        <_>
          5 9 4 1 -1.</_>
        <_>
          7 9 2 1 2.</_></rects>
      <tilted>0</tilted></_>
    <_>
      <rects>
        <_>
          5 10 3 1 -1.</_>
        <_>
          6 10 1 1 3.</_></rects>
      <tilted>0</tilted></_>
    <_>
      <rects>
        <_>
          6 1 6 18 -1.</_>
        <_>
          6 7 6 6 3.</_></rects>
      <tilted>0</tilted></_>
    <_>
      <rects>
        <_>
          6 5 1 9 -1.</_>
        <_>
          6 8 1 3 3.</_></rects>
      <tilted>0</tilted></_>
    <_>
      <rects>
        <_>
          6 6 5 6 -1.</_>
        <_>
          6 9 5 3 2.</_></rects>
      <tilted>0</tilted></_>
    <_>
      <rects>
        <_>
          6 9 2 6 -1.</_>
        <_>
          6 9 1 3 2.</_>
        <_>
          7 12 1 3 2.</_></rects>
      <tilted>0</tilted></_>
    <_>
      <rects>
        <_>
          7 0 6 2 -1.</_>
        <_>
          7 1 6 1 2.</_></rects>
      <tilted>0</tilted></_>
    <_>
      <rects>
        <_>
          7 0 7 2 -1.</_>
        <_>
          7 1 7 1 2.</_></rects>
      <tilted>0</tilted></_>
    <_>
      <rects>
        <_>
          7 1 6 19 -1.</_>
        <_>
          9 1 2 19 3.</_></rects>
      <tilted>0</tilted></_>
    <_>
      <rects>
        <_>
          7 9 6 3 -1.</_>
        <_>
          9 9 2 3 3.</_></rects>
      <tilted>0</tilted></_>
    <_>
      <rects>
        <_>
          8 2 7 9 -1.</_>
        <_>
          8 5 7 3 3.</_></rects>
      <tilted>0</tilted></_>
    <_>
      <rects>
        <_>
          8 6 6 12 -1.</_>
        <_>
          8 12 6 6 2.</_></rects>
      <tilted>0</tilted></_>
    <_>
      <rects>
        <_>
          8 8 2 5 -1.</_>
        <_>
          9 8 1 5 2.</_></rects>
      <tilted>0</tilted></_>
    <_>
      <rects>
        <_>
          9 6 5 4 -1.</_>
        <_>
          9 8 5 2 2.</_></rects>
      <tilted>0</tilted></_>
    <_>
      <rects>
        <_>
          9 8 6 5 -1.</_>
        <_>
          12 8 3 5 2.</_></rects>
      <tilted>0</tilted></_>
    <_>
      <rects>
        <_>
          9 9 4 3 -1.</_>
        <_>
          11 9 2 3 2.</_></rects>
      <tilted>0</tilted></_>
    <_>
      <rects>
        <_>
          9 15 2 4 -1.</_>
        <_>
          9 17 2 2 2.</_></rects>
      <tilted>0</tilted></_>
    <_>
      <rects>
        <_>
          12 8 8 6 -1.</_>
        <_>
          16 8 4 6 2.</_></rects>
      <tilted>0</tilted></_>
    <_>
      <rects>
        <_>
          13 5 2 15 -1.</_>
        <_>
          13 10 2 5 3.</_></rects>
      <tilted>0</tilted></_>
    <_>
      <rects>
        <_>
          13 8 1 9 -1.</_>
        <_>
          13 11 1 3 3.</_></rects>
      <tilted>0</tilted></_>
    <_>
      <rects>
        <_>
          14 9 1 6 -1.</_>
        <_>
          14 11 1 2 3.</_></rects>
      <tilted>0</tilted></_></features></cascade>
</opencv_storage>
